<?xml version="1.0"?>
<opencv_storage>
<cascade>
  <stageType>BOOST</stageType>
  <featureType>LBP</featureType>
  <height>24</height>
  <width>24</width>
  <stageParams>
    <boostType>GAB</boostType>
    <minHitRate>9.9500000476837158e-01</minHitRate>
    <maxFalseAlarm>5.0000000000000000e-01</maxFalseAlarm>
    <weightTrimRate>9.4999999999999996e-01</weightTrimRate>
    <maxDepth>1</maxDepth>
    <maxWeakCount>100</maxWeakCount></stageParams>
  <featureParams>
    <maxCatCount>256</maxCatCount>
    <featSize>1</featSize></featureParams>
  <stageNum>17</stageNum>
  <stages>
    <!-- stage 0 -->
    <_>
      <maxWeakCount>3</maxWeakCount>
      <stageThreshold>-5.2212524414062500e-01</stageThreshold>
      <weakClassifiers>
        <_>
          <internalNodes>
            0 -1 18 -611594021 -619984120 -791392047 -715303603
            -1163216198 -1157062904 -788860678 -2359845</internalNodes>
          <leafValues>
            -6.6129904985427856e-01 9.1364932060241699e-01</leafValues></_>
        <_>
          <internalNodes>
            0 -1 45 -217853479 -549174132 1895387349 -203489215
            -218047605 -620720372 -1863257637 -69216289</internalNodes>
          <leafValues>
            -6.0852950811386108e-01 8.6250060796737671e-01</leafValues></_>
        <_>
          <internalNodes>
            0 -1 52 -544607526 -36839296 201379985 1595757011 -627471686
            -1165320056 504036315 -540024069</internalNodes>
          <leafValues>
            -6.6111272573471069e-01 7.4770337343215942e-01</leafValues></_></weakClassifiers></_>
    <!-- stage 1 -->
    <_>
      <maxWeakCount>4</maxWeakCount>
      <stageThreshold>-1.0150486230850220e+00</stageThreshold>
      <weakClassifiers>
        <_>
          <internalNodes>
            0 -1 24 -208932353 -774912819 -1331498829 -773852929
            -284426357 -1895248499 -1289552965 -5243905</internalNodes>
          <leafValues>
            -5.7717883586883545e-01 8.9360326528549194e-01</leafValues></_>
        <_>
          <internalNodes>
            0 -1 26 -239348497 -1063729 1889587415 -707837747 -206831701
            -7696497 -1330457877 -7615089</internalNodes>
          <leafValues>
            -5.0827860832214355e-01 8.1918323040008545e-01</leafValues></_>
        <_>
          <internalNodes>
            0 -1 83 -76285990 1597197851 -780156125 353570589 -805252182
            -6029638 -1068446501 -572531233</internalNodes>
          <leafValues>
            -5.8811402320861816e-01 6.5858346223831177e-01</leafValues></_>
        <_>
          <internalNodes>
            0 -1 62 -615791801 -975322681 1358090480 1409237212
            2130771351 1326371656 -214699021 -2100225</internalNodes>
          <leafValues>
            -5.3034698963165283e-01 6.5852290391921997e-01</leafValues></_></weakClassifiers></_>
    <!-- stage 2 -->
    <_>
      <maxWeakCount>5</maxWeakCount>
      <stageThreshold>-1.6663646697998047e+00</stageThreshold>
      <weakClassifiers>
        <_>
          <internalNodes>
            0 -1 22 -6561825 -544355107 -1140916005 -65315 -1156907109
            -1627333155 -1163215941 -4465665</internalNodes>
          <leafValues>
            -5.3119671344757080e-01 8.8854825496673584e-01</leafValues></_>
        <_>
          <internalNodes>
            0 -1 32 -206319105 -536886129 279040501 -704690739 -72613973
            -72643446 -1281097749 -5517937</internalNodes>
          <leafValues>
            -4.7550866007804871e-01 8.1414145231246948e-01</leafValues></_>
        <_>
          <internalNodes>
            0 -1 11 -675285513 1353835760 -341051597 -215746767
            146267647 343531007 724221503 -12845125</internalNodes>
          <leafValues>
            -4.5953288674354553e-01 6.9845324754714966e-01</leafValues></_>
        <_>
          <internalNodes>
            0 -1 74 -319946708 -8973312 -1937051778 -2213 -1364549462
            -63448 -319886610 2139095039</internalNodes>
          <leafValues>
            -7.2237420082092285e-01 4.6863678097724915e-01</leafValues></_>
        <_>
          <internalNodes>
            0 -1 85 -993471288 -791094052 -194330408 -252651790
            -997339956 -570556449 2139049979 2147221503</internalNodes>
          <leafValues>
            -7.6740235090255737e-01 3.6332181096076965e-01</leafValues></_></weakClassifiers></_>
    <!-- stage 3 -->
    <_>
      <maxWeakCount>5</maxWeakCount>
      <stageThreshold>-1.5303361415863037e+00</stageThreshold>
      <weakClassifiers>
        <_>
          <internalNodes>
            0 -1 47 -202122241 -10498097 -260849451 -134266659 -83820545
            -821932275 -202115073 -12321</internalNodes>
          <leafValues>
            -5.1754081249237061e-01 8.6344945430755615e-01</leafValues></_>
        <_>
          <internalNodes>
            0 -1 12 -203427361 -572664355 -1313820237 -773852673
            -7406705 -855057015 -1280656501 -72352769</internalNodes>
          <leafValues>
            -4.8896259069442749e-01 8.0301707983016968e-01</leafValues></_>
        <_>
          <internalNodes>
            0 -1 50 -536879906 -715664188 -1959528449 -249442189
            18582015 -1925198673 218876863 -14417921</internalNodes>
          <leafValues>
            -5.1490306854248047e-01 6.6058826446533203e-01</leafValues></_>
        <_>
          <internalNodes>
            0 -1 84 -321851710 -926880572 -103744016 -45023756
            -1360336150 -1895903508 -1 2147483515</internalNodes>
          <leafValues>
            -7.4672973155975342e-01 4.3411991000175476e-01</leafValues></_>
        <_>
          <internalNodes>
            0 -1 57 -1275208710 2008258186 1081169279 823263007
            -656454194 -309344116 1148016063 -5300853</internalNodes>
          <leafValues>
            -6.4319020509719849e-01 4.8817273974418640e-01</leafValues></_></weakClassifiers></_>
    <!-- stage 4 -->
    <_>
      <maxWeakCount>5</maxWeakCount>
      <stageThreshold>-1.5397814512252808e+00</stageThreshold>
      <weakClassifiers>
        <_>
          <internalNodes>
            0 -1 15 -87034913 -2142123 -83897377 -3207083 -1433732149
            -3147809 -1433732389 -3148833</internalNodes>
          <leafValues>
            -5.1078397035598755e-01 8.7180608510971069e-01</leafValues></_>
        <_>
          <internalNodes>
            0 -1 30 -69209121 -540720683 849162427 -65327 -1157039205
            -587164403 -1431651397 -74448897</internalNodes>
          <leafValues>
            -5.0527274608612061e-01 7.8363466262817383e-01</leafValues></_>
        <_>
          <internalNodes>
            0 -1 51 -546309382 -548154857 -1968238382 -15256797
            -899687457 138539276 -1999714081 -820650145</internalNodes>
          <leafValues>
            -6.2340170145034790e-01 5.8693736791610718e-01</leafValues></_>
        <_>
          <internalNodes>
            0 -1 80 -588062725 -73203845 -314583107 -15594201 -931478322
            -2433281 -847261729 -45057</internalNodes>
          <leafValues>
            -5.0243097543716431e-01 6.3102412223815918e-01</leafValues></_>
        <_>
          <internalNodes>
            0 -1 52 -112856326 -251678534 1594346398 -597704705
            -20383038 -207641950 -553403509 -2114834</internalNodes>
          <leafValues>
            -6.0823118686676025e-01 4.8151874542236328e-01</leafValues></_></weakClassifiers></_>
    <!-- stage 5 -->
    <_>
      <maxWeakCount>5</maxWeakCount>
      <stageThreshold>-1.5750285387039185e+00</stageThreshold>
      <weakClassifiers>
        <_>
          <internalNodes>
            0 -1 44 -168427585 -181276749 -854601969 -14438622
            -722088721 -168427521 -838891378 -20562</internalNodes>
          <leafValues>
            -5.1195323467254639e-01 8.4368652105331421e-01</leafValues></_>
        <_>
          <internalNodes>
            0 -1 10 -34087683 -239741835 -1087897601 -47974605
            -856699683 -16782087 -1901097809 -1086324801</internalNodes>
          <leafValues>
            -5.1093393564224243e-01 7.4520838260650635e-01</leafValues></_>
        <_>
          <internalNodes>
            0 -1 67 -223679830 -16587094 -1063073222 1595867663
            -232719702 -16594400 -1058356482 -536883201</internalNodes>
          <leafValues>
            -6.9386464357376099e-01 5.3714936971664429e-01</leafValues></_>
        <_>
          <internalNodes>
            0 -1 78 -218374145 2138525471 -385917865 -536918433
            849512695 589447129 -523842337 -16789761</internalNodes>
          <leafValues>
            -5.0934600830078125e-01 6.7578887939453125e-01</leafValues></_>
        <_>
          <internalNodes>
            0 -1 72 -7606088 -74911592 -8193880 -7669592 -1312293
            -5579319 -5517064 2146431176</internalNodes>
          <leafValues>
            -7.0457041263580322e-01 4.5515489578247070e-01</leafValues></_></weakClassifiers></_>
    <!-- stage 6 -->
    <_>
      <maxWeakCount>6</maxWeakCount>
      <stageThreshold>-1.1104300022125244e+00</stageThreshold>
      <weakClassifiers>
        <_>
          <internalNodes>
            0 -1 4 -705167361 -181272781 -20561 -13521118 -992097025
            -168296705 -838889809 -20561</internalNodes>
          <leafValues>
            -4.5517468452453613e-01 8.6901032924652100e-01</leafValues></_>
        <_>
          <internalNodes>
            0 -1 25 -709102145 -1916826193 -240062288 -704643073
            -5505093 -1894805590 -206307414 -4194369</internalNodes>
          <leafValues>
            -4.6020108461380005e-01 7.5965756177902222e-01</leafValues></_>
        <_>
          <internalNodes>
            0 -1 79 -4522053 -14499933 -33599521 1602162443 -206503949
            -4199425 1349636319 -536885025</internalNodes>
          <leafValues>
            -4.7539803385734558e-01 6.7603683471679688e-01</leafValues></_>
        <_>
          <internalNodes>
            0 -1 53 -58920864 -545296384 -60752643 -4194305 -170594124
            -101097212 -1002111768 2147482879</internalNodes>
          <leafValues>
            -7.0987933874130249e-01 4.4462677836418152e-01</leafValues></_>
        <_>
          <internalNodes>
            0 -1 66 -1326904 -291121 -537146167 -71652408 -542391092
            -266613 -7634804 2139810698</internalNodes>
          <leafValues>
            -7.1110349893569946e-01 4.1426950693130493e-01</leafValues></_>
        <_>
          <internalNodes>
            0 -1 17 -241986113 -141832209 1889637617 -1514443537
            -153379413 -1077998961 -205797958 -1145338581</internalNodes>
          <leafValues>
            -5.3592133522033691e-01 5.4682052135467529e-01</leafValues></_></weakClassifiers></_>
    <!-- stage 7 -->
    <_>
      <maxWeakCount>6</maxWeakCount>
      <stageThreshold>-1.0897845029830933e+00</stageThreshold>
      <weakClassifiers>
        <_>
          <internalNodes>
            0 -1 34 -251963939 -67121713 -235448867 -1094193 -218365953
            -89457713 -205848577 -74784817</internalNodes>
          <leafValues>
            -4.7750261425971985e-01 8.3509606122970581e-01</leafValues></_>
        <_>
          <internalNodes>
            0 -1 21 -545259525 -15615181 -8410382 -9192670 -599786497
            1565908991 -922751745 -545259777</internalNodes>
          <leafValues>
            -5.0811862945556641e-01 7.2751855850219727e-01</leafValues></_>
        <_>
          <internalNodes>
            0 -1 36 -1575433 -570439457 -251465293 -235679237
            -1349517377 -1886419233 -1224475717 -1078984705</internalNodes>
          <leafValues>
            -4.2529401183128357e-01 7.2086668014526367e-01</leafValues></_>
        <_>
          <internalNodes>
            0 -1 54 -16453632 -150949376 -47187779 -1086328577 -82841360
            -254414670 -706883332 2147482111</internalNodes>
          <leafValues>
            -7.2641706466674805e-01 4.1940805315971375e-01</leafValues></_>
        <_>
          <internalNodes>
            0 -1 5 -210239553 -81534038 1425526335 1395783595 2012581767
            -38072405 1912538575 -8310</internalNodes>
          <leafValues>
            -4.9727427959442139e-01 5.5037099123001099e-01</leafValues></_>
        <_>
          <internalNodes>
            0 -1 37 1428603058 -148708178 2008809407 419673519
            2005554396 -4268852 2005618110 -138686551</internalNodes>
          <leafValues>
            -6.0007768869400024e-01 3.9899694919586182e-01</leafValues></_></weakClassifiers></_>
    <!-- stage 8 -->
    <_>
      <maxWeakCount>5</maxWeakCount>
      <stageThreshold>-1.5955555438995361e+00</stageThreshold>
      <weakClassifiers>
        <_>
          <internalNodes>
            0 -1 20 -611319921 -573710883 -263437 -790761217 -15859960
            -552730658 -1146373462 -201329925</internalNodes>
          <leafValues>
            -5.3489273786544800e-01 7.9037344455718994e-01</leafValues></_>
        <_>
          <internalNodes>
            0 -1 81 -26017793 2132229951 -16789761 1868498199 -30217558
            -14418181 -50409762 -536883457</internalNodes>
          <leafValues>
            -5.4273009300231934e-01 7.1430289745330811e-01</leafValues></_>
        <_>
          <internalNodes>
            0 -1 58 -10785 -282081393 -67382817 -135282468 -231476225
            855693087 -218893569 -201330433</internalNodes>
          <leafValues>
            -4.5579144358634949e-01 7.0624738931655884e-01</leafValues></_>
        <_>
          <internalNodes>
            0 -1 73 -61762 -186743698 2053452630 -59375881 777980590
            -855765814 2137459247 -9044097</internalNodes>
          <leafValues>
            -6.1902284622192383e-01 5.1324796676635742e-01</leafValues></_>
        <_>
          <internalNodes>
            0 -1 68 -271343360 -318976 -1154345724 -9995008 -1427199046
            -1078285656 -806372353 2147483615</internalNodes>
          <leafValues>
            -7.0015150308609009e-01 4.0326011180877686e-01</leafValues></_></weakClassifiers></_>
    <!-- stage 9 -->
    <_>
      <maxWeakCount>7</maxWeakCount>
      <stageThreshold>-1.4372731447219849e+00</stageThreshold>
      <weakClassifiers>
        <_>
          <internalNodes>
            0 -1 60 -536872709 -788541190 -135267333 -67109894
            -572661761 -536870913 1600126731 -198</internalNodes>
          <leafValues>
            -4.5927998423576355e-01 8.2215994596481323e-01</leafValues></_>
        <_>
          <internalNodes>
            0 -1 28 -139198481 1931673514 1979187199 2000158639
            -704655889 -274962 1441617135 -1061489</internalNodes>
          <leafValues>
            -5.0276863574981689e-01 7.1192502975463867e-01</leafValues></_>
        <_>
          <internalNodes>
            0 -1 77 -629407745 -1292186637 -262273 469323735 -218103809
            -1325466881 -8241 -922755073</internalNodes>
          <leafValues>
            -4.6903103590011597e-01 6.9732159376144409e-01</leafValues></_>
        <_>
          <internalNodes>
            0 -1 35 -204606721 -539158691 -1145097989 -2158267 -95748129
            1598840157 -1165313350 -270532689</internalNodes>
          <leafValues>
            -4.3693533539772034e-01 6.1779749393463135e-01</leafValues></_>
        <_>
          <internalNodes>
            0 -1 83 -537659397 523992847 -537169577 1462049055
            1374736890 -5177430 -797715009 -572531201</internalNodes>
          <leafValues>
            -4.7912734746932983e-01 5.6153196096420288e-01</leafValues></_>
        <_>
          <internalNodes>
            0 -1 3 -265881665 1375729663 664982455 -167774209 2007945003
            92802212 -215943238 -234884105</internalNodes>
          <leafValues>
            -5.2586460113525391e-01 4.8086187243461609e-01</leafValues></_>
        <_>
          <internalNodes>
            0 -1 69 2013083950 795656140 74056704 212872180 -304224393
            1738927679 1375596288 2147482623</internalNodes>
          <leafValues>
            -6.5277034044265747e-01 3.9507448673248291e-01</leafValues></_></weakClassifiers></_>
    <!-- stage 10 -->
    <_>
      <maxWeakCount>6</maxWeakCount>
      <stageThreshold>-1.2417566776275635e+00</stageThreshold>
      <weakClassifiers>
        <_>
          <internalNodes>
            0 -1 16 -1297943561 -134228491 -1331629065 -134221313
            -1079314513 -1092147 -1146421333 -7350835</internalNodes>
          <leafValues>
            -5.1179605722427368e-01 7.8920358419418335e-01</leafValues></_>
        <_>
          <internalNodes>
            0 -1 1 -562037761 -548405441 -16794885 -52673 -924909825
            -937658787 -1459703046 -117607813</internalNodes>
          <leafValues>
            -4.8148015141487122e-01 7.3326355218887329e-01</leafValues></_>
        <_>
          <internalNodes>
            0 -1 31 -1209008227 -1429409828 735510805 -4099 -2293812
            -1429667940 -1074062515 -1048627</internalNodes>
          <leafValues>
            -5.3294283151626587e-01 5.8457642793655396e-01</leafValues></_>
        <_>
          <internalNodes>
            0 -1 55 -120055216 -592125963 -37010051 -598605987
            -1300581710 -251723779 -117817541 -59572645</internalNodes>
          <leafValues>
            -6.1984747648239136e-01 4.6067908406257629e-01</leafValues></_>
        <_>
          <internalNodes>
            0 -1 9 -1077938253 1149203825 -9437261 -219678928 1069547515
            268372469 -1347949779 -4195529</internalNodes>
          <leafValues>
            -4.8812037706375122e-01 5.5928683280944824e-01</leafValues></_>
        <_>
          <internalNodes>
            0 -1 87 248250570 -823169409 -857944227 -87556354 1180160
            -17109250 -823132466 1860890350</internalNodes>
          <leafValues>
            -8.0269938707351685e-01 3.1190359592437744e-01</leafValues></_></weakClassifiers></_>
    <!-- stage 11 -->
    <_>
      <maxWeakCount>7</maxWeakCount>
      <stageThreshold>-8.0404114723205566e-01</stageThreshold>
      <weakClassifiers>
        <_>
          <internalNodes>
            0 -1 14 -5351425 -43521 1001010107 -34817 -7406595
            -578005547 -1146421253 -5310465</internalNodes>
          <leafValues>
            -4.5297071337699890e-01 8.2529532909393311e-01</leafValues></_>
        <_>
          <internalNodes>
            0 -1 63 -4353 -318898434 -48759945 -176816129 -268489042
            -286274306 -8442817 -8388737</internalNodes>
          <leafValues>
            -4.4480279088020325e-01 7.4690020084381104e-01</leafValues></_>
        <_>
          <internalNodes>
            0 -1 33 -1090538757 -27459585 -40945133 -11763947 -117916934
            -656605830 -104875013 -44434561</internalNodes>
          <leafValues>
            -5.0941956043243408e-01 6.0022884607315063e-01</leafValues></_>
        <_>
          <internalNodes>
            0 -1 0 2071983095 -136317579 -67387393 -1310785 939488501
            904990832 758641983 -13632713</internalNodes>
          <leafValues>
            -4.6033445000648499e-01 5.9837645292282104e-01</leafValues></_>
        <_>
          <internalNodes>
            0 -1 65 -1344296534 -1145061854 -1944580440 1033413370
            2147352512 -684256 -1931366466 -570557761</internalNodes>
          <leafValues>
            -6.2466478347778320e-01 4.2204988002777100e-01</leafValues></_>
        <_>
          <internalNodes>
            0 -1 89 274218284 7911141 -1155048171 1360820245 -1631785268
            -587399171 -196611 1341980636</internalNodes>
          <leafValues>
            -7.3395675420761108e-01 3.0376419425010681e-01</leafValues></_>
        <_>
          <internalNodes>
            0 -1 56 -1189103070 134265856 -11698401 -10618112 -5243021
            -285217856 -8391881 2147480976</internalNodes>
          <leafValues>
            -7.2594958543777466e-01 3.3767235279083252e-01</leafValues></_></weakClassifiers></_>
    <!-- stage 12 -->
    <_>
      <maxWeakCount>7</maxWeakCount>
      <stageThreshold>-1.0014817714691162e+00</stageThreshold>
      <weakClassifiers>
        <_>
          <internalNodes>
            0 -1 19 -71573505 -67449393 11558367 -603992833 -4464677
            -5616376 -71565313 -270851</internalNodes>
          <leafValues>
            -4.6204379200935364e-01 7.9117649793624878e-01</leafValues></_>
        <_>
          <internalNodes>
            0 -1 38 2008798719 -536914705 -248385025 -172231169
            2143278511 -5288820 -148179521 -139471413</internalNodes>
          <leafValues>
            -4.5393341779708862e-01 7.1170359849929810e-01</leafValues></_>
        <_>
          <internalNodes>
            0 -1 13 -301990411 -139399056 -23069857 -149883086
            -855648771 -570501891 197103519 -1077936129</internalNodes>
          <leafValues>
            -5.3956973552703857e-01 5.5241745710372925e-01</leafValues></_>
        <_>
          <internalNodes>
            0 -1 83 -79953990 1026768443 1652237299 791890477 -803143750
            -1147348293 -791618337 -572566017</internalNodes>
          <leafValues>
            -6.9698423147201538e-01 4.0172877907752991e-01</leafValues></_>
        <_>
          <internalNodes>
            0 -1 7 1941923287 -1163173905 -251707655 -1299555329
            -504414131 -1126582 -134647297 -1078989873</internalNodes>
          <leafValues>
            -5.2941250801086426e-01 5.0341427326202393e-01</leafValues></_>
        <_>
          <internalNodes>
            0 -1 59 2139068938 436242976 -1174413006 -67132766
            1599994847 2130574071 1306398737 -7520</internalNodes>
          <leafValues>
            -6.7436653375625610e-01 3.5838851332664490e-01</leafValues></_>
        <_>
          <internalNodes>
            0 -1 74 -353435612 -536936432 745204206 -33554643 -286610264
            -134342616 -320016690 2097151967</internalNodes>
          <leafValues>
            -8.2665091753005981e-01 2.3008625209331512e-01</leafValues></_></weakClassifiers></_>
    <!-- stage 13 -->
    <_>
      <maxWeakCount>7</maxWeakCount>
      <stageThreshold>-8.9639192819595337e-01</stageThreshold>
      <weakClassifiers>
        <_>
          <internalNodes>
            0 -1 40 -10487041 -14680161 -67114241 -816984500 -214697286
            -14942337 -67112198 -4354</internalNodes>
          <leafValues>
            -4.1431963443756104e-01 8.1726336479187012e-01</leafValues></_>
        <_>
          <internalNodes>
            0 -1 88 -84214017 1932720127 -32769 2003777375 -1057043202
            -86311937 -855651121 -536917313</internalNodes>
          <leafValues>
            -5.6155931949615479e-01 6.3519132137298584e-01</leafValues></_>
        <_>
          <internalNodes>
            0 -1 2 -600309833 -15601871 -1073876993 -8672727 -177079043
            -528385 -34280194 -20737</internalNodes>
          <leafValues>
            -4.6322256326675415e-01 6.4446985721588135e-01</leafValues></_>
        <_>
          <internalNodes>
            0 -1 70 1222621946 -352345518 2113923754 -280064 1599334338
            -270811213 1599035729 -145525504</internalNodes>
          <leafValues>
            -6.4248937368392944e-01 4.0368023514747620e-01</leafValues></_>
        <_>
          <internalNodes>
            0 -1 6 1744808959 939467519 1400896935 938979263 801090239
            -54609 1744776125 -2113537</internalNodes>
          <leafValues>
            -4.6618512272834778e-01 5.4041421413421631e-01</leafValues></_>
        <_>
          <internalNodes>
            0 -1 85 -859193144 -656893744 -218377512 -793054982
            -859271480 -266280 -1093633 2146172911</internalNodes>
          <leafValues>
            -8.1648719310760498e-01 2.5980442762374878e-01</leafValues></_>
        <_>
          <internalNodes>
            0 -1 71 -1112215120 -202314512 -675857935 -982512 2399969
            -423567363 733949951 -33281</internalNodes>
          <leafValues>
            -6.4344811439514160e-01 3.8498032093048096e-01</leafValues></_></weakClassifiers></_>
    <!-- stage 14 -->
    <_>
      <maxWeakCount>7</maxWeakCount>
      <stageThreshold>-8.7190872430801392e-01</stageThreshold>
      <weakClassifiers>
        <_>
          <internalNodes>
            0 -1 46 -285216897 -786637 -268489441 -49405 -318771457
            -454754317 -289427473 -1</internalNodes>
          <leafValues>
            -3.7737673521041870e-01 8.3488744497299194e-01</leafValues></_>
        <_>
          <internalNodes>
            0 -1 23 -1073741825 -140003 -1140880417 -1073804068
            -1145307145 -1174339687 -1074790657 -1140850689</internalNodes>
          <leafValues>
            -4.1009694337844849e-01 7.3448419570922852e-01</leafValues></_>
        <_>
          <internalNodes>
            0 -1 50 -805315362 -706749232 -1615339786 -266214345
            100618191 -839001635 153028495 -13369481</internalNodes>
          <leafValues>
            -5.8289492130279541e-01 5.1780581474304199e-01</leafValues></_>
        <_>
          <internalNodes>
            0 -1 39 1434320879 -167772178 -524288073 1931607039
            -50377528 -135266897 1979186927 -5242961</internalNodes>
          <leafValues>
            -4.6060928702354431e-01 5.7007896900177002e-01</leafValues></_>
        <_>
          <internalNodes>
            0 -1 75 136062480 1677628990 539493452 -553682050 1741433608
            -1141120193 -286300434 2130706303</internalNodes>
          <leafValues>
            -7.6524001359939575e-01 3.3595964312553406e-01</leafValues></_>
        <_>
          <internalNodes>
            0 -1 48 -83889622 -253300080 -36896941 -32919024 -488641806
            -218631440 -901460019 -2097153</internalNodes>
          <leafValues>
            -6.7476141452789307e-01 3.1716942787170410e-01</leafValues></_>
        <_>
          <internalNodes>
            0 -1 82 -1104499798 -1441615192 -1120753370 -1442568126
            -1083965453 -725069 -18484234 2145451488</internalNodes>
          <leafValues>
            -7.7497500181198120e-01 3.0594006180763245e-01</leafValues></_></weakClassifiers></_>
    <!-- stage 15 -->
    <_>
      <maxWeakCount>7</maxWeakCount>
      <stageThreshold>-1.0985246896743774e+00</stageThreshold>
      <weakClassifiers>
        <_>
          <internalNodes>
            0 -1 8 -4207105 -33597953 -5246977 -185338113 -271905652
            -973093635 -1079374066 -240984577</internalNodes>
          <leafValues>
            -4.8091900348663330e-01 7.5729924440383911e-01</leafValues></_>
        <_>
          <internalNodes>
            0 -1 76 -4464705 -1087701589 -8449 -4256369 -235208805
            -1145901057 -170011169 -172763651</internalNodes>
          <leafValues>
            -5.1366716623306274e-01 6.6979837417602539e-01</leafValues></_>
        <_>
          <internalNodes>
            0 -1 42 -742662693 -71644001 30104959 -12803 -48505414
            -71688824 -608444421 -71574276</internalNodes>
          <leafValues>
            -4.9031263589859009e-01 6.5064954757690430e-01</leafValues></_>
        <_>
          <internalNodes>
            0 -1 64 -540086584 -54200434 -649935996 -121045878
            -280397236 -565904415 -2302008 1572920772</internalNodes>
          <leafValues>
            -7.2145843505859375e-01 3.7800273299217224e-01</leafValues></_>
        <_>
          <internalNodes>
            0 -1 27 -545283856 -168434944 -1912885523 -21106 -1325534218
            -799941647 -865141251 -579470339</internalNodes>
          <leafValues>
            -6.3253396749496460e-01 3.9746394753456116e-01</leafValues></_>
        <_>
          <internalNodes>
            0 -1 57 -88081722 -1316889018 324628435 805568299 1164758504
            -122459506 98387451 -1213542773</internalNodes>
          <leafValues>
            -6.9132310152053833e-01 3.4870401024818420e-01</leafValues></_>
        <_>
          <internalNodes>
            0 -1 49 -657192762 -52462081 -389543737 -119557637 -50659326
            -117787916 -929507252 2096036558</internalNodes>
          <leafValues>
            -7.5201737880706787e-01 3.0223053693771362e-01</leafValues></_></weakClassifiers></_>
    <!-- stage 16 -->
    <_>
      <maxWeakCount>7</maxWeakCount>
      <stageThreshold>-1.0336002111434937e+00</stageThreshold>
      <weakClassifiers>
        <_>
          <internalNodes>
            0 -1 61 -3161137 -808464433 -150998017 -335609634 -16449537
            -540213281 -210504719 -3329</internalNodes>
          <leafValues>
            -4.4504773616790771e-01 7.6374363899230957e-01</leafValues></_>
        <_>
          <internalNodes>
            0 -1 41 -671094853 -67205206 -906110497 -538998353 -786526
            -6553720 -789513733 -262145</internalNodes>
          <leafValues>
            -4.9490636587142944e-01 6.5823954343795776e-01</leafValues></_>
        <_>
          <internalNodes>
            0 -1 90 -2063605761 214879967 -10624769 -2066815251
            2111301599 -54008947 -285739041 82762751</internalNodes>
          <leafValues>
            -5.8867025375366211e-01 4.9215543270111084e-01</leafValues></_>
        <_>
          <internalNodes>
            0 -1 51 -62938888 -45616591 -1686166798 -48926415
            -1937928449 1281127543 -1997043493 -866124681</internalNodes>
          <leafValues>
            -7.2064006328582764e-01 3.7908223271369934e-01</leafValues></_>
        <_>
          <internalNodes>
            0 -1 86 -858993444 -1730361704 -1631109108 217635020
            -800435206 -67108879 -2425601 2063268319</internalNodes>
          <leafValues>
            -7.2712266445159912e-01 3.4899872541427612e-01</leafValues></_>
        <_>
          <internalNodes>
            0 -1 29 -188759811 -167947072 -452757641 1903293429
            -335608625 -17054865 1060097839 -13369377</internalNodes>
          <leafValues>
            -5.5046355724334717e-01 4.7684082388877869e-01</leafValues></_>
        <_>
          <internalNodes>
            0 -1 43 -1643916128 15732272 -1241678889 2077884412
            413785080 866333424 2143243800 -71565648</internalNodes>
          <leafValues>
            -6.7372447252273560e-01 3.3630329370498657e-01</leafValues></_></weakClassifiers></_></stages>
  <features>
    <_>
      <rect>
        0 2 4 7</rect></_>
    <_>
      <rect>
        0 3 7 3</rect></_>
    <_>
      <rect>
        1 9 6 2</rect></_>
    <_>
      <rect>
        2 2 4 7</rect></_>
    <_>
      <rect>
        2 9 7 2</rect></_>
    <_>
      <rect>
        2 12 6 3</rect></_>
    <_>
      <rect>
        2 12 7 4</rect></_>
    <_>
      <rect>
        2 13 7 2</rect></_>
    <_>
      <rect>
        3 0 3 7</rect></_>
    <_>
      <rect>
        3 3 3 7</rect></_>
    <_>
      <rect>
        3 4 3 5</rect></_>
    <_>
      <rect>
        3 4 3 6</rect></_>
    <_>
      <rect>
        3 4 4 5</rect></_>
    <_>
      <rect>
        3 5 3 5</rect></_>
    <_>
      <rect>
        3 5 5 3</rect></_>
    <_>
      <rect>
        3 8 6 4</rect></_>
    <_>
      <rect>
        3 10 5 3</rect></_>
    <_>
      <rect>
        3 10 6 4</rect></_>
    <_>
      <rect>
        4 3 4 6</rect></_>
    <_>
      <rect>
        4 4 6 4</rect></_>
    <_>
      <rect>
        5 3 3 5</rect></_>
    <_>
      <rect>
        5 3 5 3</rect></_>
    <_>
      <rect>
        5 3 5 4</rect></_>
    <_>
      <rect>
        5 3 6 4</rect></_>
    <_>
      <rect>
        5 6 3 4</rect></_>
    <_>
      <rect>
        5 6 3 5</rect></_>
    <_>
      <rect>
        5 9 5 4</rect></_>
    <_>
      <rect>
        5 11 4 1</rect></_>
    <_>
      <rect>
        5 12 4 2</rect></_>
    <_>
      <rect>
        6 5 2 4</rect></_>
    <_>
      <rect>
        6 5 4 3</rect></_>
    <_>
      <rect>
        6 7 5 2</rect></_>
    <_>
      <rect>
        6 10 4 3</rect></_>
    <_>
      <rect>
        6 10 5 2</rect></_>
    <_>
      <rect>
        6 10 5 3</rect></_>
    <_>
      <rect>
        7 7 3 2</rect></_>
    <_>
      <rect>
        7 8 2 3</rect></_>
    <_>
      <rect>
        7 10 3 1</rect></_>
    <_>
      <rect>
        7 11 3 2</rect></_>
    <_>
      <rect>
        7 12 4 2</rect></_>
    <_>
      <rect>
        8 5 2 4</rect></_>
    <_>
      <rect>
        8 7 2 4</rect></_>
    <_>
      <rect>
        8 8 3 2</rect></_>
    <_>
      <rect>
        8 10 4 1</rect></_>
    <_>
      <rect>
        9 1 2 7</rect></_>
    <_>
      <rect>
        9 4 4 5</rect></_>
    <_>
      <rect>
        9 5 2 6</rect></_>
    <_>
      <rect>
        9 5 4 5</rect></_>
    <_>
      <rect>
        9 7 2 3</rect></_>
    <_>
      <rect>
        9 9 1 1</rect></_>
    <_>
      <rect>
        9 9 1 2</rect></_>
    <_>
      <rect>
        9 9 2 1</rect></_>
    <_>
      <rect>
        9 9 2 2</rect></_>
    <_>
      <rect>
        9 10 1 1</rect></_>
    <_>
      <rect>
        9 11 1 1</rect></_>
    <_>
      <rect>
        9 11 3 1</rect></_>
    <_>
      <rect>
        9 12 1 1</rect></_>
    <_>
      <rect>
        9 12 2 1</rect></_>
    <_>
      <rect>
        10 1 4 7</rect></_>
    <_>
      <rect>
        10 3 2 4</rect></_>
    <_>
      <rect>
        10 3 2 5</rect></_>
    <_>
      <rect>
        10 3 3 5</rect></_>
    <_>
      <rect>
        10 4 3 5</rect></_>
    <_>
      <rect>
        10 5 2 6</rect></_>
    <_>
      <rect>
        10 6 1 2</rect></_>
    <_>
      <rect>
        10 8 1 4</rect></_>
    <_>
      <rect>
        10 9 1 1</rect></_>
    <_>
      <rect>
        10 9 1 2</rect></_>
    <_>
      <rect>
        10 12 1 1</rect></_>
    <_>
      <rect>
        10 13 1 2</rect></_>
    <_>
      <rect>
        11 4 1 4</rect></_>
    <_>
      <rect>
        11 8 2 2</rect></_>
    <_>
      <rect>
        11 9 1 1</rect></_>
    <_>
      <rect>
        11 9 1 3</rect></_>
    <_>
      <rect>
        11 12 1 1</rect></_>
    <_>
      <rect>
        11 12 1 2</rect></_>
    <_>
      <rect>
        12 0 3 7</rect></_>
    <_>
      <rect>
        12 1 4 7</rect></_>
    <_>
      <rect>
        12 3 3 7</rect></_>
    <_>
      <rect>
        12 5 2 4</rect></_>
    <_>
      <rect>
        12 6 3 4</rect></_>
    <_>
      <rect>
        12 7 2 4</rect></_>
    <_>
      <rect>
        12 9 1 1</rect></_>
    <_>
      <rect>
        12 9 1 2</rect></_>
    <_>
      <rect>
        12 10 1 1</rect></_>
    <_>
      <rect>
        12 11 1 1</rect></_>
    <_>
      <rect>
        12 11 2 1</rect></_>
    <_>
      <rect>
        12 12 1 1</rect></_>
    <_>
      <rect>
        13 4 3 6</rect></_>
    <_>
      <rect>
        13 10 2 1</rect></_>
    <_>
      <rect>
        18 0 2 8</rect></_></features></cascade>
</opencv_storage>
