<?xml version="1.0"?>
<opencv_storage>
<cascade>
  <stageType>BOOST</stageType>
  <featureType>LBP</featureType>
  <height>24</height>
  <width>24</width>
  <stageParams>
    <boostType>GAB</boostType>
    <minHitRate>9.9500000476837158e-01</minHitRate>
    <maxFalseAlarm>5.0000000000000000e-01</maxFalseAlarm>
    <weightTrimRate>9.4999999999999996e-01</weightTrimRate>
    <maxDepth>1</maxDepth>
    <maxWeakCount>100</maxWeakCount></stageParams>
  <featureParams>
    <maxCatCount>256</maxCatCount>
    <featSize>1</featSize></featureParams>
  <stageNum>20</stageNum>
  <stages>
    <!-- stage 0 -->
    <_>
      <maxWeakCount>6</maxWeakCount>
      <stageThreshold>-1.6288936138153076e+00</stageThreshold>
      <weakClassifiers>
        <_>
          <internalNodes>
            0 -1 40 -94635269 -581085871 -109248493 1464140033
            -2147439878 -2013208885 -1971152133 -548408481</internalNodes>
          <leafValues>
            -4.7688764333724976e-01 8.8543885946273804e-01</leafValues></_>
        <_>
          <internalNodes>
            0 -1 46 -204211745 -553135353 1354039509 1566526797
            -234685798 -1425929976 821219579 -615515681</internalNodes>
          <leafValues>
            -3.8161310553550720e-01 8.4453999996185303e-01</leafValues></_>
        <_>
          <internalNodes>
            0 -1 9 -578137895 -540589884 17441179 833294847 -1383411508
            -1727245184 570618043 -611618049</internalNodes>
          <leafValues>
            -3.6659425497055054e-01 7.1964949369430542e-01</leafValues></_>
        <_>
          <internalNodes>
            0 -1 107 -44958222 -14438142 1077560063 1563887371
            -590283030 -1660805632 9928959 -639662085</internalNodes>
          <leafValues>
            -4.3200469017028809e-01 6.0615426301956177e-01</leafValues></_>
        <_>
          <internalNodes>
            0 -1 90 -609488646 -715325292 -1979670287 1565589825
            -2012550230 151257425 1779104443 1594086779</internalNodes>
          <leafValues>
            -5.9947931766510010e-01 4.3118441104888916e-01</leafValues></_>
        <_>
          <internalNodes>
            0 -1 113 -126354477 -49252792 69402713 -545815549
            -2112685381 -1979660136 -941750069 -842819361</internalNodes>
          <leafValues>
            -4.1047352552413940e-01 5.8034133911132812e-01</leafValues></_></weakClassifiers></_>
    <!-- stage 1 -->
    <_>
      <maxWeakCount>6</maxWeakCount>
      <stageThreshold>-1.7219704389572144e+00</stageThreshold>
      <weakClassifiers>
        <_>
          <internalNodes>
            0 -1 77 -201342737 -536887090 537084115 -202120974
            1259327375 1309376654 1929641903 -78644225</internalNodes>
          <leafValues>
            -4.1519150137901306e-01 8.6273616552352905e-01</leafValues></_>
        <_>
          <internalNodes>
            0 -1 61 -213648645 1594611527 1089142849 1494171727
            -267214598 184585226 -801406725 -10499361</internalNodes>
          <leafValues>
            -4.1383889317512512e-01 7.2727441787719727e-01</leafValues></_>
        <_>
          <internalNodes>
            0 -1 120 -81 1627373535 242689826 805302255 -67108993
            536864767 253720115 2013265919</internalNodes>
          <leafValues>
            -5.3977137804031372e-01 5.3489243984222412e-01</leafValues></_>
        <_>
          <internalNodes>
            0 -1 36 -777006661 -1044937433 1889661361 -775957029
            -139736661 -1903424498 -1342046293 -5246017</internalNodes>
          <leafValues>
            -3.6404123902320862e-01 7.1624875068664551e-01</leafValues></_>
        <_>
          <internalNodes>
            0 -1 116 -1346654421 -808475870 326444821 2000114452
            14852778 42542730 8388607 771743743</internalNodes>
          <leafValues>
            -6.0542327165603638e-01 3.9293295145034790e-01</leafValues></_>
        <_>
          <internalNodes>
            0 -1 142 -37025 -302113 67397437 1187310582 1996969244
            1209860726 1426685655 1199570943</internalNodes>
          <leafValues>
            -5.2481740713119507e-01 4.3134579062461853e-01</leafValues></_></weakClassifiers></_>
    <!-- stage 2 -->
    <_>
      <maxWeakCount>7</maxWeakCount>
      <stageThreshold>-9.5864957571029663e-01</stageThreshold>
      <weakClassifiers>
        <_>
          <internalNodes>
            0 -1 26 -581566465 -183370333 -716046405 -787367117
            -857896725 -577262933 -856719185 -21573</internalNodes>
          <leafValues>
            -3.5242950916290283e-01 8.8214111328125000e-01</leafValues></_>
        <_>
          <internalNodes>
            0 -1 78 -80482561 -125837090 270659895 1902244055 -818968530
            -359691122 -83624833 -13123345</internalNodes>
          <leafValues>
            -3.4768012166023254e-01 7.3730331659317017e-01</leafValues></_>
        <_>
          <internalNodes>
            0 -1 102 -2097281 -101189633 -9874 1324351471 -134218945
            1304156155 1300234063 1330641743</internalNodes>
          <leafValues>
            -5.0187993049621582e-01 5.1966065168380737e-01</leafValues></_>
        <_>
          <internalNodes>
            0 -1 83 -2100493 -14420045 -332168462 -620646381 -2007514913
            -838406075 -889206529 -816843013</internalNodes>
          <leafValues>
            -4.0001252293586731e-01 6.3155061006546021e-01</leafValues></_>
        <_>
          <internalNodes>
            0 -1 130 -9963521 -411312161 -134226067 1193802703
            2137522175 -134217745 1600649045 1162868567</internalNodes>
          <leafValues>
            -5.4485493898391724e-01 3.9959713816642761e-01</leafValues></_>
        <_>
          <internalNodes>
            0 -1 21 -71306285 -167948271 -1465218081 -100708129
            -1370756129 -79204235 168607675 -70254609</internalNodes>
          <leafValues>
            -3.2132440805435181e-01 6.6867941617965698e-01</leafValues></_>
        <_>
          <internalNodes>
            0 -1 88 1499722675 -1330587560 25382747 -747119844
            -215895109 -1701778128 -608744488 -622072613</internalNodes>
          <leafValues>
            -3.2589548826217651e-01 5.6507980823516846e-01</leafValues></_></weakClassifiers></_>
    <!-- stage 3 -->
    <_>
      <maxWeakCount>7</maxWeakCount>
      <stageThreshold>-1.1381766796112061e+00</stageThreshold>
      <weakClassifiers>
        <_>
          <internalNodes>
            0 -1 10 -42663937 -149841101 -15339521 -13423837 -990525185
            -546049 -866284289 -21841</internalNodes>
          <leafValues>
            -2.9887053370475769e-01 8.7274521589279175e-01</leafValues></_>
        <_>
          <internalNodes>
            0 -1 52 -84165889 -3220129 -50817 1598901597 -1427066118
            -121045249 -89418753 -10657953</internalNodes>
          <leafValues>
            -3.2987731695175171e-01 7.2157448530197144e-01</leafValues></_>
        <_>
          <internalNodes>
            0 -1 127 2139095039 -268435457 -269485201 -269488145
            -1084768321 -9 2147483479 1602191195</internalNodes>
          <leafValues>
            -4.3958356976509094e-01 5.8552813529968262e-01</leafValues></_>
        <_>
          <internalNodes>
            0 -1 106 -1 -67108865 -271581237 -496042101 -131233
            -100663297 1875631951 1196389199</internalNodes>
          <leafValues>
            -4.8361733555793762e-01 5.0736403465270996e-01</leafValues></_>
        <_>
          <internalNodes>
            0 -1 110 -10760993 859043839 -833140536 -216861982
            -536880945 -619479425 -754643768 318951370</internalNodes>
          <leafValues>
            -6.3723182678222656e-01 3.3069866895675659e-01</leafValues></_>
        <_>
          <internalNodes>
            0 -1 126 -857750822 -722675974 -805934 1436267506 1541394382
            -640746305 1594579903 -545524933</internalNodes>
          <leafValues>
            -4.6147555112838745e-01 4.6003258228302002e-01</leafValues></_>
        <_>
          <internalNodes>
            0 -1 34 -607399473 -720416691 -1869975055 -776007459
            -32868469 218760205 -1280609741 -74493729</internalNodes>
          <leafValues>
            -3.7695917487144470e-01 5.1813882589340210e-01</leafValues></_></weakClassifiers></_>
    <!-- stage 4 -->
    <_>
      <maxWeakCount>5</maxWeakCount>
      <stageThreshold>-1.0587601661682129e+00</stageThreshold>
      <weakClassifiers>
        <_>
          <internalNodes>
            0 -1 18 1998845183 -575717122 354440661 1026291199
            -156510980 -391511928 -13896453 -5518130</internalNodes>
          <leafValues>
            -4.0744352340698242e-01 8.4853625297546387e-01</leafValues></_>
        <_>
          <internalNodes>
            0 -1 103 -67897102 -553398493 -131410697 1595870991
            -252587782 -282391493 -253509382 -7370609</internalNodes>
          <leafValues>
            -4.5153602957725525e-01 7.5021994113922119e-01</leafValues></_>
        <_>
          <internalNodes>
            0 -1 101 -202647585 -607402489 11665623 -237305633
            -1442645877 -1576402173 573830123 -70522145</internalNodes>
          <leafValues>
            -3.7740257382392883e-01 7.3663711547851562e-01</leafValues></_>
        <_>
          <internalNodes>
            0 -1 92 -801779217 -617991424 19002847 1929632291
            -1057028920 -1976955904 83741951 -1311313</internalNodes>
          <leafValues>
            -3.5832688212394714e-01 6.5580475330352783e-01</leafValues></_>
        <_>
          <internalNodes>
            0 -1 85 -708591392 -148950912 1149298808 2064614847
            -101744496 -48658383 202172556 -13938629</internalNodes>
          <leafValues>
            -4.3024802207946777e-01 5.3594881296157837e-01</leafValues></_></weakClassifiers></_>
    <!-- stage 5 -->
    <_>
      <maxWeakCount>8</maxWeakCount>
      <stageThreshold>-1.2082656621932983e+00</stageThreshold>
      <weakClassifiers>
        <_>
          <internalNodes>
            0 -1 38 -581042181 -183371086 -581566977 -586040525
            -857765637 -12605261 -933263169 -2381125</internalNodes>
          <leafValues>
            -3.4553775191307068e-01 8.6027234792709351e-01</leafValues></_>
        <_>
          <internalNodes>
            0 -1 15 -33820193 -574008883 -258977583 -771795489 -72614261
            -1895299836 866374571 -72355425</internalNodes>
          <leafValues>
            -3.0858510732650757e-01 7.8341078758239746e-01</leafValues></_>
        <_>
          <internalNodes>
            0 -1 29 1560793343 -12151562 120502175 1057154236 994263284
            -54734668 2133834991 -15994626</internalNodes>
          <leafValues>
            -3.6839255690574646e-01 6.4902395009994507e-01</leafValues></_>
        <_>
          <internalNodes>
            0 -1 135 -21257478 -151475462 806399061 1896916723
            -1371592534 -1438904824 -9982353 -78123009</internalNodes>
          <leafValues>
            -4.0271863341331482e-01 5.5407583713531494e-01</leafValues></_>
        <_>
          <internalNodes>
            0 -1 162 -732015785 -774178337 1372804957 404020831
            -360006758 -557661445 -890314856 414862794</internalNodes>
          <leafValues>
            -5.1316362619400024e-01 4.0177834033966064e-01</leafValues></_>
        <_>
          <internalNodes>
            0 -1 155 -18168102 529604153 378539615 1400048179
            -2108637016 -1373631459 -1975483654 -604271638</internalNodes>
          <leafValues>
            -4.2777732014656067e-01 4.8855763673782349e-01</leafValues></_>
        <_>
          <internalNodes>
            0 -1 89 -14158379 -719892480 488366423 -715656205 -764023297
            -272703312 85008639 -68160805</internalNodes>
          <leafValues>
            -2.8522524237632751e-01 6.8565869331359863e-01</leafValues></_>
        <_>
          <internalNodes>
            0 -1 107 -9175062 -13453566 1277805806 -1691416822 -51319632
            -1079878104 -932216594 -67139909</internalNodes>
          <leafValues>
            -3.8814222812652588e-01 5.2281409502029419e-01</leafValues></_></weakClassifiers></_>
    <!-- stage 6 -->
    <_>
      <maxWeakCount>9</maxWeakCount>
      <stageThreshold>-1.2514681816101074e+00</stageThreshold>
      <weakClassifiers>
        <_>
          <internalNodes>
            0 -1 47 867950587 -201712166 16469471 -570471201 -206309381
            -71672320 1507810767 -538222648</internalNodes>
          <leafValues>
            -3.6912521719932556e-01 7.7993458509445190e-01</leafValues></_>
        <_>
          <internalNodes>
            0 -1 75 -168820737 1970404209 -552631537 -147603711
            -991968001 -252317517 -824209426 -268441601</internalNodes>
          <leafValues>
            -3.3687904477119446e-01 7.4215793609619141e-01</leafValues></_>
        <_>
          <internalNodes>
            0 -1 30 -570513421 -134283216 1328525311 -1342201357
            -44697611 -69900303 222621663 -813305101</internalNodes>
          <leafValues>
            -3.6104553937911987e-01 5.9550446271896362e-01</leafValues></_>
        <_>
          <internalNodes>
            0 -1 118 -268439569 1711266815 98241285 771694975 -17
            754940915 1342174775 2080366591</internalNodes>
          <leafValues>
            -4.9367725849151611e-01 4.4429081678390503e-01</leafValues></_>
        <_>
          <internalNodes>
            0 -1 97 -601882833 -654835921 -262144149 -796722241
            -429951161 1440702054 -967877813 1107556303</internalNodes>
          <leafValues>
            -5.3913092613220215e-01 3.2397055625915527e-01</leafValues></_>
        <_>
          <internalNodes>
            0 -1 11 -583695372 1431350067 -35721829 -546195149
            -855856915 -541644673 -1931505937 1539289279</internalNodes>
          <leafValues>
            -4.1813758015632629e-01 4.5005089044570923e-01</leafValues></_>
        <_>
          <internalNodes>
            0 -1 157 -654652193 -654649601 -775653889 422712115
            -993997608 1381422135 -611131393 465279931</internalNodes>
          <leafValues>
            -5.0536119937896729e-01 3.7321239709854126e-01</leafValues></_>
        <_>
          <internalNodes>
            0 -1 164 -2000701569 1570602743 1065066359 1439757785
            -1344438819 -724993 -1913029687 436039641</internalNodes>
          <leafValues>
            -4.6065786480903625e-01 3.7009561061859131e-01</leafValues></_>
        <_>
          <internalNodes>
            0 -1 138 -254549768 -208542550 271622276 -724070737
            -233588065 -1179578870 -150745173 -1693462902</internalNodes>
          <leafValues>
            -3.8279557228088379e-01 4.9087131023406982e-01</leafValues></_></weakClassifiers></_>
    <!-- stage 7 -->
    <_>
      <maxWeakCount>9</maxWeakCount>
      <stageThreshold>-1.5461647510528564e+00</stageThreshold>
      <weakClassifiers>
        <_>
          <internalNodes>
            0 -1 62 -262213 -2375934 1157582045 -838922994 -135200845
            -6095102 1090121471 -68424753</internalNodes>
          <leafValues>
            -3.2972264289855957e-01 7.8690916299819946e-01</leafValues></_>
        <_>
          <internalNodes>
            0 -1 151 -4522053 -15544574 -4727337 -551351293 -1071464198
            -373566759 -1061434117 -570467077</internalNodes>
          <leafValues>
            -4.0158671140670776e-01 6.6724407672882080e-01</leafValues></_>
        <_>
          <internalNodes>
            0 -1 42 -84153667 -33565347 -22213 -11051661 -922834181
            -1865032197 -1439956997 -109576261</internalNodes>
          <leafValues>
            -3.6565512418746948e-01 6.4694607257843018e-01</leafValues></_>
        <_>
          <internalNodes>
            0 -1 32 -68231169 -706914859 -1816137029 -773861123
            -1089815670 -854829632 -1416709205 -67112225</internalNodes>
          <leafValues>
            -2.9325953125953674e-01 6.5747892856597900e-01</leafValues></_>
        <_>
          <internalNodes>
            0 -1 119 -402657345 -2052587810 353707808 1024027486
            1606153711 11966191 332258068 1914699763</internalNodes>
          <leafValues>
            -5.1952362060546875e-01 3.6048004031181335e-01</leafValues></_>
        <_>
          <internalNodes>
            0 -1 113 -151882830 -242169688 403899421 -571538407
            -1342128198 -1340032368 -1146813237 -1932553462</internalNodes>
          <leafValues>
            -4.4488191604614258e-01 4.2954000830650330e-01</leafValues></_>
        <_>
          <internalNodes>
            0 -1 28 -2810113 -1224711 -1354027521 -233473 2069967614
            -10708866 1495273983 1581267583</internalNodes>
          <leafValues>
            -4.2511311173439026e-01 3.8879901170730591e-01</leafValues></_>
        <_>
          <internalNodes>
            0 -1 137 -244057421 -90985813 -248450127 -95372133
            1907690175 -1590882644 -748187937 -28689</internalNodes>
          <leafValues>
            -2.9797109961509705e-01 6.0755449533462524e-01</leafValues></_>
        <_>
          <internalNodes>
            0 -1 83 -37291280 -131026638 -922599310 -100415454
            -892628745 -918516688 -1996780334 -1910907145</internalNodes>
          <leafValues>
            -4.1728544235229492e-01 4.0341815352439880e-01</leafValues></_></weakClassifiers></_>
    <!-- stage 8 -->
    <_>
      <maxWeakCount>8</maxWeakCount>
      <stageThreshold>-9.9185824394226074e-01</stageThreshold>
      <weakClassifiers>
        <_>
          <internalNodes>
            0 -1 3 1970795775 -8969 857961855 1059321807 -173157188
            -5323572 -8389122 -80806294</internalNodes>
          <leafValues>
            -3.1260338425636292e-01 7.6948851346969604e-01</leafValues></_>
        <_>
          <internalNodes>
            0 -1 73 -144714785 -3159353 -1326448557 -203489073
            -218039330 -1979528441 -211553537 -69209089</internalNodes>
          <leafValues>
            -3.4840860962867737e-01 7.3181283473968506e-01</leafValues></_>
        <_>
          <internalNodes>
            0 -1 104 -524289 -8913150 -654340609 -1073804354 -34277377
            -5112005 -856690945 -16449</internalNodes>
          <leafValues>
            -2.9325005412101746e-01 6.9852513074874878e-01</leafValues></_>
        <_>
          <internalNodes>
            0 -1 143 -1 -3073 804728655 1324312943 -143163529 2012739327
            2079685503 2138046463</internalNodes>
          <leafValues>
            -4.6158298850059509e-01 4.6988144516944885e-01</leafValues></_>
        <_>
          <internalNodes>
            0 -1 161 1560240127 1574756349 -604536961 1436442079
            -644513797 -1677918241 -545260065 430627563</internalNodes>
          <leafValues>
            -4.6394053101539612e-01 4.5901337265968323e-01</leafValues></_>
        <_>
          <internalNodes>
            0 -1 116 -272650366 -145244638 392576279 2004301060 4907691
            546252523 273670079 1610579903</internalNodes>
          <leafValues>
            -6.2575644254684448e-01 3.2343047857284546e-01</leafValues></_>
        <_>
          <internalNodes>
            0 -1 140 -352375250 1999570467 183029627 2001196943
            -285285202 1432700208 -2067075378 1465909119</internalNodes>
          <leafValues>
            -5.8888161182403564e-01 2.9363191127777100e-01</leafValues></_>
        <_>
          <internalNodes>
            0 -1 125 -347081738 -846466073 -597165953 -1358437906
            2113369779 1363661142 1406661621 1195898194</internalNodes>
          <leafValues>
            -5.5497348308563232e-01 2.8858736157417297e-01</leafValues></_></weakClassifiers></_>
    <!-- stage 9 -->
    <_>
      <maxWeakCount>9</maxWeakCount>
      <stageThreshold>-1.5474277734756470e+00</stageThreshold>
      <weakClassifiers>
        <_>
          <internalNodes>
            0 -1 25 -214180357 -67451414 3300831 -570436129 -4980741
            -6159232 1543200735 -271921</internalNodes>
          <leafValues>
            -2.7377432584762573e-01 7.8822159767150879e-01</leafValues></_>
        <_>
          <internalNodes>
            0 -1 69 -260849457 -67400529 -783072033 -71580513 -249307169
            -1432188406 -260834305 -217854065</internalNodes>
          <leafValues>
            -4.1163980960845947e-01 6.1720663309097290e-01</leafValues></_>
        <_>
          <internalNodes>
            0 -1 13 -570762017 -798993200 -857477449 -251594813
            -819265363 -1107298961 -1358264821 -13410885</internalNodes>
          <leafValues>
            -3.8834309577941895e-01 5.5902028083801270e-01</leafValues></_>
        <_>
          <internalNodes>
            0 -1 64 -35652165 -570571559 320878353 -49719975 -1949646600
            -590774140 -1148534854 -1076903457</internalNodes>
          <leafValues>
            -3.1692653894424438e-01 6.0120171308517456e-01</leafValues></_>
        <_>
          <internalNodes>
            0 -1 123 -825230541 -725683534 -572547085 -541077334
            -765460533 -841023541 240123723 -891293086</internalNodes>
          <leafValues>
            -3.2724753022193909e-01 5.3529715538024902e-01</leafValues></_>
        <_>
          <internalNodes>
            0 -1 144 -1 -6312961 704116543 1323248338 -214958249
            -83886113 2142075662 1197834239</internalNodes>
          <leafValues>
            -5.0471222400665283e-01 3.2235962152481079e-01</leafValues></_>
        <_>
          <internalNodes>
            0 -1 56 -301993326 -35844080 -1443913475 -10547113 675332095
            -267029196 -2012479557 -279970817</internalNodes>
          <leafValues>
            -4.0122577548027039e-01 4.4581705331802368e-01</leafValues></_>
        <_>
          <internalNodes>
            0 -1 136 -169889006 -184180704 158680255 -714274678
            822406072 -1879010668 31228079 -2071010609</internalNodes>
          <leafValues>
            -4.0521764755249023e-01 4.0457156300544739e-01</leafValues></_>
        <_>
          <internalNodes>
            0 -1 111 -69734154 -150795005 -2063990633 -584118481
            -109907726 -1157465832 -937230089 -2113385</internalNodes>
          <leafValues>
            -3.7637484073638916e-01 4.1966331005096436e-01</leafValues></_></weakClassifiers></_>
    <!-- stage 10 -->
    <_>
      <maxWeakCount>11</maxWeakCount>
      <stageThreshold>-1.3554940223693848e+00</stageThreshold>
      <weakClassifiers>
        <_>
          <internalNodes>
            0 -1 4 -70257697 -540061611 -84946725 -69250983 -1433732097
            -607127585 -1442122757 -70257697</internalNodes>
          <leafValues>
            -2.0818729698657990e-01 8.2432949542999268e-01</leafValues></_>
        <_>
          <internalNodes>
            0 -1 17 -201330209 -572534307 -1314688525 -771763753
            -7405685 -821242483 -1146422341 -5242881</internalNodes>
          <leafValues>
            -2.8555658459663391e-01 7.2964692115783691e-01</leafValues></_>
        <_>
          <internalNodes>
            0 -1 105 -536871201 -555760482 -218483973 -67129094
            -821166097 -607270193 839973819 -15728645</internalNodes>
          <leafValues>
            -3.4686711430549622e-01 5.7294958829879761e-01</leafValues></_>
        <_>
          <internalNodes>
            0 -1 99 -2097457 861921223 -67114785 -1869439010 -543334947
            1984284613 -671756404 1933636556</internalNodes>
          <leafValues>
            -5.0479435920715332e-01 3.6166310310363770e-01</leafValues></_>
        <_>
          <internalNodes>
            0 -1 49 2082895351 -133891 388273975 757781750 2146390260
            -100876036 -12714065 -7868690</internalNodes>
          <leafValues>
            -3.6739927530288696e-01 4.3802720308303833e-01</leafValues></_>
        <_>
          <internalNodes>
            0 -1 121 -69214225 -823142409 -278925505 267255807 -1311753
            1827929599 2042591504 1358823295</internalNodes>
          <leafValues>
            -5.4399138689041138e-01 3.0417469143867493e-01</leafValues></_>
        <_>
          <internalNodes>
            0 -1 159 -1426145288 68730813 -1120428193 1431920125
            -1145458787 -1380204547 -23216135 226353137</internalNodes>
          <leafValues>
            -5.1788753271102905e-01 2.8225088119506836e-01</leafValues></_>
        <_>
          <internalNodes>
            0 -1 82 -1900020295 -1997095740 -1122631948 -705299016
            742195617 519813240 -1824832623 -1112576872</internalNodes>
          <leafValues>
            -3.9326098561286926e-01 3.9578235149383545e-01</leafValues></_>
        <_>
          <internalNodes>
            0 -1 153 -550306317 2067402291 -1891905603 2033388081
            -860828622 -344463241 -997160866 -303425</internalNodes>
          <leafValues>
            -3.2372933626174927e-01 4.3764570355415344e-01</leafValues></_>
        <_>
          <internalNodes>
            0 -1 134 -137628694 -553058370 1808398120 1940698810
            1977832687 -586451461 1433317540 357429716</internalNodes>
          <leafValues>
            -5.8294558525085449e-01 2.3880089819431305e-01</leafValues></_>
        <_>
          <internalNodes>
            0 -1 51 1672203738 548067052 1910199741 -239346450
            1932746122 -139229746 1912294858 1950080463</internalNodes>
          <leafValues>
            -5.3893399238586426e-01 2.4187822639942169e-01</leafValues></_></weakClassifiers></_>
    <!-- stage 11 -->
    <_>
      <maxWeakCount>11</maxWeakCount>
      <stageThreshold>-1.1445814371109009e+00</stageThreshold>
      <weakClassifiers>
        <_>
          <internalNodes>
            0 -1 100 -3031053 -15466733 -3201 1061096255 -187565828
            -1065025 -989868801 -268464129</internalNodes>
          <leafValues>
            -3.1853380799293518e-01 7.4556535482406616e-01</leafValues></_>
        <_>
          <internalNodes>
            0 -1 146 -80478789 -1145885381 -4771 2065370127 2050022620
            -96731137 -587936561 -541078273</internalNodes>
          <leafValues>
            -3.5601335763931274e-01 6.7481416463851929e-01</leafValues></_>
        <_>
          <internalNodes>
            0 -1 23 -75518309 -690843 -79746389 -8947949 -2142508033
            -705562625 -1430261761 -42467329</internalNodes>
          <leafValues>
            -3.8392600417137146e-01 5.4864251613616943e-01</leafValues></_>
        <_>
          <internalNodes>
            0 -1 31 -1008745505 1356187093 -1287708677 284537851
            -807458048 -637547312 -1431655510 -67112069</internalNodes>
          <leafValues>
            -3.4160545468330383e-01 5.2133917808532715e-01</leafValues></_>
        <_>
          <internalNodes>
            0 -1 80 -33603363 -736149500 2130443775 1902620693
            -103818084 -301990243 -2029846854 -1157432465</internalNodes>
          <leafValues>
            -3.8649746775627136e-01 4.2831286787986755e-01</leafValues></_>
        <_>
          <internalNodes>
            0 -1 41 -1138491913 -1612712195 -9451009 -11929857
            -279454211 -75794971 521491349 2134335624</internalNodes>
          <leafValues>
            -4.0380606055259705e-01 4.1619575023651123e-01</leafValues></_>
        <_>
          <internalNodes>
            0 -1 132 -67108929 -275781633 -311468049 -286300211 -2885633
            -12092425 -170395803 1195870543</internalNodes>
          <leafValues>
            -4.5405617356300354e-01 3.3986589312553406e-01</leafValues></_>
        <_>
          <internalNodes>
            0 -1 54 78232240 280162738 1592627167 -536878881 -1214778950
            -1179453278 236670216 -855651120</internalNodes>
          <leafValues>
            -4.3269345164299011e-01 3.8090100884437561e-01</leafValues></_>
        <_>
          <internalNodes>
            0 -1 131 -222321409 -1137122649 -1116688852 288403686
            -681769440 -358142827 -6867084 -81265057</internalNodes>
          <leafValues>
            -3.6489793658256531e-01 4.3574431538581848e-01</leafValues></_>
        <_>
          <internalNodes>
            0 -1 50 -168580958 -713900054 -776929384 -712903968
            1703609474 1699677578 -852897654 -975453298</internalNodes>
          <leafValues>
            -4.2939341068267822e-01 3.5822024941444397e-01</leafValues></_>
        <_>
          <internalNodes>
            0 -1 94 1438121587 64264 396320081 1565326093 208611639
            643354295 1380940503 1342107475</internalNodes>
          <leafValues>
            -4.3647217750549316e-01 3.2530418038368225e-01</leafValues></_></weakClassifiers></_>
    <!-- stage 12 -->
    <_>
      <maxWeakCount>11</maxWeakCount>
      <stageThreshold>-1.1257393360137939e+00</stageThreshold>
      <weakClassifiers>
        <_>
          <internalNodes>
            0 -1 6 -17421 -67325040 -1409307649 -67128323 -70385665
            -36571179 151912447 -807534593</internalNodes>
          <leafValues>
            -2.6968282461166382e-01 7.5947207212448120e-01</leafValues></_>
        <_>
          <internalNodes>
            0 -1 76 -67374113 -68186417 -252522283 -136363809 -83623985
            -284554229 -206308353 -274465</internalNodes>
          <leafValues>
            -3.0941811203956604e-01 7.0537889003753662e-01</leafValues></_>
        <_>
          <internalNodes>
            0 -1 53 -207621121 1440699351 -1165872966 1406996816
            172536410 1540126037 -1433879878 -2365441</internalNodes>
          <leafValues>
            -3.9134424924850464e-01 5.1256477832794189e-01</leafValues></_>
        <_>
          <internalNodes>
            0 -1 154 -1078222917 464727611 -805609859 1327713283
            -2009546574 -1125471309 -996618018 -587277092</internalNodes>
          <leafValues>
            -3.9748319983482361e-01 4.7423157095909119e-01</leafValues></_>
        <_>
          <internalNodes>
            0 -1 39 -9685131 -574812609 -1423786531 -9482881 2071543613
            -4435073 1043381759 2122192383</internalNodes>
          <leafValues>
            -4.7500872611999512e-01 3.4546881914138794e-01</leafValues></_>
        <_>
          <internalNodes>
            0 -1 70 -1161841992 -591883177 -276840643 1565917007
            -92495174 -1204274244 -1075069127 -1656955557</internalNodes>
          <leafValues>
            -3.8849303126335144e-01 3.7957343459129333e-01</leafValues></_>
        <_>
          <internalNodes>
            0 -1 96 1409282658 1464854951 -35520806 1829746574
            1641005202 -818413698 -218891534 -414195158</internalNodes>
          <leafValues>
            -3.8189375400543213e-01 3.7206226587295532e-01</leafValues></_>
        <_>
          <internalNodes>
            0 -1 141 -201327809 -12583017 174131191 1861169014 -81793185
            -1089747155 804456447 1610575871</internalNodes>
          <leafValues>
            -4.1325098276138306e-01 3.7243437767028809e-01</leafValues></_>
        <_>
          <internalNodes>
            0 -1 37 -17113490 -1101496322 -1157752262 -1206226245
            -44278188 2068859676 -615260418 -2916741</internalNodes>
          <leafValues>
            -4.2524769902229309e-01 3.5330641269683838e-01</leafValues></_>
        <_>
          <internalNodes>
            0 -1 57 -442042573 -1414667390 1997929941 -165898 779598591
            -827671518 1626428855 -957377045</internalNodes>
          <leafValues>
            -3.1449553370475769e-01 4.5160570740699768e-01</leafValues></_>
        <_>
          <internalNodes>
            0 -1 20 611614557 -12790865 -1371587073 636771763 1735786485
            -671219721 1544847095 259274394</internalNodes>
          <leafValues>
            -4.7547411918640137e-01 2.9807871580123901e-01</leafValues></_></weakClassifiers></_>
    <!-- stage 13 -->
    <_>
      <maxWeakCount>11</maxWeakCount>
      <stageThreshold>-1.1971484422683716e+00</stageThreshold>
      <weakClassifiers>
        <_>
          <internalNodes>
            0 -1 27 -84937985 -3188257 -72404097 1600078111 -89984262
            -87228929 -68488193 -11536929</internalNodes>
          <leafValues>
            -2.5815740227699280e-01 7.5605851411819458e-01</leafValues></_>
        <_>
          <internalNodes>
            0 -1 107 -524289 -13385933 -973093377 -8450529 -51316229
            -786497 -855651073 -28673</internalNodes>
          <leafValues>
            -3.5124716162681580e-01 6.3649916648864746e-01</leafValues></_>
        <_>
          <internalNodes>
            0 -1 33 -69215233 -538977571 -1146417059 -44843 -1157562369
            -1157587044 -1179470849 -67110145</internalNodes>
          <leafValues>
            -2.9442071914672852e-01 6.6533499956130981e-01</leafValues></_>
        <_>
          <internalNodes>
            0 -1 14 -540082689 -188886604 -827335119 -34787247
            -1938899057 -1913266895 715857834 -4227269</internalNodes>
          <leafValues>
            -2.9304629564285278e-01 5.4663103818893433e-01</leafValues></_>
        <_>
          <internalNodes>
            0 -1 110 -537146630 -206345777 -182024038 -1323115846
            -570433841 -1622966274 -653473078 52654794</internalNodes>
          <leafValues>
            -6.1022943258285522e-01 2.2143803536891937e-01</leafValues></_>
        <_>
          <internalNodes>
            0 -1 152 -1172114558 -3478550 -152317089 -649640640
            -903690078 -270555109 1574395583 -812695099</internalNodes>
          <leafValues>
            -4.1130325198173523e-01 3.6266157031059265e-01</leafValues></_>
        <_>
          <internalNodes>
            0 -1 120 -134217801 738195967 796864269 253067247 -71305345
            1604320239 1006597894 1166016511</internalNodes>
          <leafValues>
            -5.5236154794692993e-01 2.7107337117195129e-01</leafValues></_>
        <_>
          <internalNodes>
            0 -1 92 -1876296211 -1692260480 1127308799 841014018
            -2064841652 -923914356 1153393823 -1078989170</internalNodes>
          <leafValues>
            -4.0120342373847961e-01 3.9129486680030823e-01</leafValues></_>
        <_>
          <internalNodes>
            0 -1 137 -137232742 -108994841 942732342 -39790378
            -114088353 -1396896753 -1515901305 -1077964915</internalNodes>
          <leafValues>
            -3.3888062834739685e-01 4.2981943488121033e-01</leafValues></_>
        <_>
          <internalNodes>
            0 -1 165 1568421759 2002710271 -551567369 2105403647
            2130415613 -524581 1004503039 491569039</internalNodes>
          <leafValues>
            -4.8000004887580872e-01 2.8892406821250916e-01</leafValues></_>
        <_>
          <internalNodes>
            0 -1 80 -51969904 -723566544 -1612726529 -613681405
            -1598034942 -134769865 -1862015605 -83626066</internalNodes>
          <leafValues>
            -3.8094919919967651e-01 4.0083560347557068e-01</leafValues></_></weakClassifiers></_>
    <!-- stage 14 -->
    <_>
      <maxWeakCount>11</maxWeakCount>
      <stageThreshold>-1.0932067632675171e+00</stageThreshold>
      <weakClassifiers>
        <_>
          <internalNodes>
            0 -1 45 -71570689 -15728817 -235159297 -547402417 -232590605
            -83714145 -83889921 -10494465</internalNodes>
          <leafValues>
            -2.6212024688720703e-01 7.5147527456283569e-01</leafValues></_>
        <_>
          <internalNodes>
            0 -1 66 -1156844545 -1081358881 -5516323 -548454321
            -1308429581 -3152385 -72109313 -3160609</internalNodes>
          <leafValues>
            -3.2133698463439941e-01 6.5325075387954712e-01</leafValues></_>
        <_>
          <internalNodes>
            0 -1 48 -1080036365 -1393641482 973017841 -1075840067
            -1342197004 -1903379004 805217265 -2097441</internalNodes>
          <leafValues>
            -3.5745775699615479e-01 5.4516255855560303e-01</leafValues></_>
        <_>
          <internalNodes>
            0 -1 79 -252449061 -611088081 639748815 -1074034481
            -134881317 -81580536 -136975665 -10383861</internalNodes>
          <leafValues>
            -3.1659221649169922e-01 5.1049208641052246e-01</leafValues></_>
        <_>
          <internalNodes>
            0 -1 128 -1442173 -2018853889 -172236878 -211243030
            -167943265 -704784453 -572665403 1438699988</internalNodes>
          <leafValues>
            -5.1290303468704224e-01 2.6603397727012634e-01</leafValues></_>
        <_>
          <internalNodes>
            0 -1 87 -206316150 -772090632 1371166079 -639680289
            -1105013366 -1080391416 1395842043 -72638817</internalNodes>
          <leafValues>
            -3.7356248497962952e-01 4.1865336894989014e-01</leafValues></_>
        <_>
          <internalNodes>
            0 -1 55 -1237387855 -1156058957 470185887 -38281729
            1859976597 -570697289 1233453301 -4213569</internalNodes>
          <leafValues>
            -2.9697284102439880e-01 4.8519328236579895e-01</leafValues></_>
        <_>
          <internalNodes>
            0 -1 129 114254066 -623039944 1830277409 -54549838
            1095613319 -739446534 1732440410 -204479966</internalNodes>
          <leafValues>
            -3.7825956940650940e-01 4.0425544977188110e-01</leafValues></_>
        <_>
          <internalNodes>
            0 -1 98 534768303 1778380519 -1364217858 1157103471
            -221258369 1608477687 2139058511 1197473565</internalNodes>
          <leafValues>
            -5.7051384449005127e-01 2.5141412019729614e-01</leafValues></_>
        <_>
          <internalNodes>
            0 -1 114 -651499622 -624184390 1509888434 -707816993
            -141969758 -75320902 -538213457 -70298881</internalNodes>
          <leafValues>
            -2.8153237700462341e-01 5.1460623741149902e-01</leafValues></_>
        <_>
          <internalNodes>
            0 -1 89 -582224880 -586772448 222719472 -586309701
            -1082713932 1323263152 76165309 1195323539</internalNodes>
          <leafValues>
            -6.2539702653884888e-01 2.2437663376331329e-01</leafValues></_></weakClassifiers></_>
    <!-- stage 15 -->
    <_>
      <maxWeakCount>12</maxWeakCount>
      <stageThreshold>-1.4043391942977905e+00</stageThreshold>
      <weakClassifiers>
        <_>
          <internalNodes>
            0 -1 19 -36306945 -147587149 -597819457 -13504733 -855667457
            -268453189 -570454849 -21825</internalNodes>
          <leafValues>
            -2.6957657933235168e-01 7.4850839376449585e-01</leafValues></_>
        <_>
          <internalNodes>
            0 -1 109 -29888833 -1228943633 1949367903 1953561855
            -79746002 -1159754194 -145227907 -59248705</internalNodes>
          <leafValues>
            -4.0727096796035767e-01 5.5798226594924927e-01</leafValues></_>
        <_>
          <internalNodes>
            0 -1 16 -37757443 -47982255 -1120206945 -14483661
            -1929394977 -33559173 -1936749381 -1077936193</internalNodes>
          <leafValues>
            -3.3237645030021667e-01 5.7141524553298950e-01</leafValues></_>
        <_>
          <internalNodes>
            0 -1 83 -620762893 -285100237 -285476238 -13370830
            -824718081 -884606381 -855668485 -2490521</internalNodes>
          <leafValues>
            -3.3437684178352356e-01 4.8409500718116760e-01</leafValues></_>
        <_>
          <internalNodes>
            0 -1 124 2136473583 -336594057 -273154053 -1478034449
            2079570911 2147213247 2109456243 1333788543</internalNodes>
          <leafValues>
            -4.9987006187438965e-01 3.3382022380828857e-01</leafValues></_>
        <_>
          <internalNodes>
            0 -1 71 -168049500 -257698910 -806506741 -150806781
            -453158657 -240082305 -941224565 1705728943</internalNodes>
          <leafValues>
            -4.5802414417266846e-01 3.0778357386589050e-01</leafValues></_>
        <_>
          <internalNodes>
            0 -1 86 -1145066312 -1796569872 -1339237984 -600445708
            -1290051399 1022301412 439858745 -541074027</internalNodes>
          <leafValues>
            -3.8609901070594788e-01 3.6721172928810120e-01</leafValues></_>
        <_>
          <internalNodes>
            0 -1 166 335477757 1408606173 -2936833 531167727 -272662659
            -642139139 2113756025 1507123149</internalNodes>
          <leafValues>
            -4.9723854660987854e-01 2.6935926079750061e-01</leafValues></_>
        <_>
          <internalNodes>
            0 -1 115 -233653576 -289307923 1356969915 -640832497
            -258825544 -1296839288 -1280146535 -1618031525</internalNodes>
          <leafValues>
            -3.6938732862472534e-01 4.2166435718536377e-01</leafValues></_>
        <_>
          <internalNodes>
            0 -1 65 -1875125038 -1313302370 1394331135 -201406994
            -82192000 -256714360 325704586 -772025186</internalNodes>
          <leafValues>
            -4.2926615476608276e-01 3.2419225573539734e-01</leafValues></_>
        <_>
          <internalNodes>
            0 -1 158 -857829925 -1026498563 735444187 134244729
            -1426698337 -1191530761 -1410716769 737848249</internalNodes>
          <leafValues>
            -5.0552821159362793e-01 3.0402770638465881e-01</leafValues></_>
        <_>
          <internalNodes>
            0 -1 163 -160479659 938702709 1820098430 -1576372434
            1291352932 -1682457070 -1423385158 -85796025</internalNodes>
          <leafValues>
            -3.2996678352355957e-01 4.0025839209556580e-01</leafValues></_></weakClassifiers></_>
    <!-- stage 16 -->
    <_>
      <maxWeakCount>11</maxWeakCount>
      <stageThreshold>-1.4434630870819092e+00</stageThreshold>
      <weakClassifiers>
        <_>
          <internalNodes>
            0 -1 148 -13369487 2066951953 -805318801 1597705559
            -1440688390 -17629193 -1996960514 -1896100609</internalNodes>
          <leafValues>
            -2.9128080606460571e-01 7.1865904331207275e-01</leafValues></_>
        <_>
          <internalNodes>
            0 -1 63 -201327649 -73401393 -1851961135 -639640625
            -68436997 -1962235254 -201327905 -3163137</internalNodes>
          <leafValues>
            -3.1976398825645447e-01 6.7814040184020996e-01</leafValues></_>
        <_>
          <internalNodes>
            0 -1 12 1129817855 -549453825 2132539391 791609310
            2012697780 -405282 -1049346 -1054986</internalNodes>
          <leafValues>
            -3.5880276560783386e-01 5.2685528993606567e-01</leafValues></_>
        <_>
          <internalNodes>
            0 -1 59 -740295185 -73171197 -138938377 -148705485
            -2130735890 -1073746226 -989866513 -134742033</internalNodes>
          <leafValues>
            -3.0865892767906189e-01 5.2796095609664917e-01</leafValues></_>
        <_>
          <internalNodes>
            0 -1 118 -875040817 -1451229185 192620326 568813597
            2147483647 1877966831 2146400576 1067392959</internalNodes>
          <leafValues>
            -5.3382104635238647e-01 2.5759369134902954e-01</leafValues></_>
        <_>
          <internalNodes>
            0 -1 44 -203049033 -286611542 -143199017 -34095683
            -524325953 -286429525 -976766985 -1064465</internalNodes>
          <leafValues>
            -2.7474191784858704e-01 5.3498768806457520e-01</leafValues></_>
        <_>
          <internalNodes>
            0 -1 0 1439644366 -201851905 1175199500 -606209169
            1467988987 821441270 1608511309 1940665338</internalNodes>
          <leafValues>
            -3.8939329981803894e-01 3.3929336071014404e-01</leafValues></_>
        <_>
          <internalNodes>
            0 -1 135 -556290 -85153042 924169271 -663421127 -8450994
            1652362910 -13812466 -71307265</internalNodes>
          <leafValues>
            -3.3597943186759949e-01 3.9299297332763672e-01</leafValues></_>
        <_>
          <internalNodes>
            0 -1 116 -1885369585 -538972382 426718982 -8552697 571157423
            -2112942145 1400324015 -1073741825</internalNodes>
          <leafValues>
            -3.2256343960762024e-01 4.0156933665275574e-01</leafValues></_>
        <_>
          <internalNodes>
            0 -1 149 -1549095766 -2071278422 -546183693 -733739968
            -662135413 -1544372613 -539051809 -573602327</internalNodes>
          <leafValues>
            -3.4562721848487854e-01 3.8244366645812988e-01</leafValues></_>
        <_>
          <internalNodes>
            0 -1 160 707829521 582383547 -841720487 134515677
            -1092536135 -1430260803 -1075888441 263174517</internalNodes>
          <leafValues>
            -5.1147210597991943e-01 2.7545875310897827e-01</leafValues></_></weakClassifiers></_>
    <!-- stage 17 -->
    <_>
      <maxWeakCount>13</maxWeakCount>
      <stageThreshold>-1.1274068355560303e+00</stageThreshold>
      <weakClassifiers>
        <_>
          <internalNodes>
            0 -1 35 -1051179 -573811243 866324723 -1845554945
            -1156579447 -829633076 -1416973397 -1141966853</internalNodes>
          <leafValues>
            -3.0334141850471497e-01 6.8702685832977295e-01</leafValues></_>
        <_>
          <internalNodes>
            0 -1 60 -9217 -32515 -1275907213 -52485 -11730961 -825307957
            -15597569 -1537</internalNodes>
          <leafValues>
            -3.3238825201988220e-01 6.4443963766098022e-01</leafValues></_>
        <_>
          <internalNodes>
            0 -1 103 -84805641 -16257601 -1497694209 -283144273
            -101581577 -1086382209 -1578753 -69219393</internalNodes>
          <leafValues>
            -3.2877388596534729e-01 5.3258609771728516e-01</leafValues></_>
        <_>
          <internalNodes>
            0 -1 8 -168560641 866336686 -184945683 1940455374 2002752974
            -22196314 1442616527 -1050705</internalNodes>
          <leafValues>
            -3.1696298718452454e-01 5.0678348541259766e-01</leafValues></_>
        <_>
          <internalNodes>
            0 -1 93 -150995149 135855389 1989670226 1566375439
            1440497519 720096627 -187171100 2105540589</internalNodes>
          <leafValues>
            -4.5164838433265686e-01 3.0677440762519836e-01</leafValues></_>
        <_>
          <internalNodes>
            0 -1 67 1458828217 -1162708496 1340067615 -536870923
            -809500933 -1280184846 1574920008 -891302438</internalNodes>
          <leafValues>
            -3.5687282681465149e-01 3.9589416980743408e-01</leafValues></_>
        <_>
          <internalNodes>
            0 -1 117 624232759 1868509110 962673412 -2146449 1216346815
            611269541 1744044014 1723857879</internalNodes>
          <leafValues>
            -4.8181399703025818e-01 2.7636569738388062e-01</leafValues></_>
        <_>
          <internalNodes>
            0 -1 154 -1691731141 186321171 -539189282 1493388547
            -2007332190 -232081678 -999765880 -591738662</internalNodes>
          <leafValues>
            -4.1669997572898865e-01 3.1553602218627930e-01</leafValues></_>
        <_>
          <internalNodes>
            0 -1 74 -654454817 1364164543 1331397999 -656409733
            -537927931 -1721920001 1390271710 1085794291</internalNodes>
          <leafValues>
            -3.7106856703758240e-01 3.7054100632667542e-01</leafValues></_>
        <_>
          <internalNodes>
            0 -1 91 -628444516 -1878458538 -438403815 1561172299
            -218383686 -1863294983 -243593205 -87089313</internalNodes>
          <leafValues>
            -4.1277152299880981e-01 3.1932717561721802e-01</leafValues></_>
        <_>
          <internalNodes>
            0 -1 72 -489290745 -604039954 -814764341 1224208382
            -33739062 -201392660 -23003478 -121985197</internalNodes>
          <leafValues>
            -3.1666338443756104e-01 4.2821589112281799e-01</leafValues></_>
        <_>
          <internalNodes>
            0 -1 112 -69477422 -539674817 1116355579 362747472
            -208737654 -52211344 -89474374 -607129509</internalNodes>
          <leafValues>
            -2.8951930999755859e-01 4.4001609086990356e-01</leafValues></_>
        <_>
          <internalNodes>
            0 -1 145 -3219457 -143800577 1565620035 751828220 -747896961
            -6561611 1394702959 1112899567</internalNodes>
          <leafValues>
            -4.4394496083259583e-01 2.8931391239166260e-01</leafValues></_></weakClassifiers></_>
    <!-- stage 18 -->
    <_>
      <maxWeakCount>13</maxWeakCount>
      <stageThreshold>-1.0711363554000854e+00</stageThreshold>
      <weakClassifiers>
        <_>
          <internalNodes>
            0 -1 21 -538985473 -3888 -1410520097 -67112451 -74448929
            -2752555 -1953759317 -69599233</internalNodes>
          <leafValues>
            -1.9559720158576965e-01 7.6295757293701172e-01</leafValues></_>
        <_>
          <internalNodes>
            0 -1 2 -139731457 -570435073 2315743 -100925953 -67117125
            -1347763064 -12848129 -4467201</internalNodes>
          <leafValues>
            -2.9361099004745483e-01 6.4491391181945801e-01</leafValues></_>
        <_>
          <internalNodes>
            0 -1 150 -12910593 -12846285 -553976709 -80523501 -860173109
            -822348801 -587346689 -67149841</internalNodes>
          <leafValues>
            -3.2554534077644348e-01 5.2508819103240967e-01</leafValues></_>
        <_>
          <internalNodes>
            0 -1 95 -538970341 -654312706 -1342180485 -4342798
            1608368095 -824316678 924809995 -587202565</internalNodes>
          <leafValues>
            -3.0250099301338196e-01 5.0434893369674683e-01</leafValues></_>
        <_>
          <internalNodes>
            0 -1 122 1266618131 -412090413 798197466 -282067190
            -278922273 1268497403 -715130909 1196424567</internalNodes>
          <leafValues>
            -4.8584684729576111e-01 2.7556368708610535e-01</leafValues></_>
        <_>
          <internalNodes>
            0 -1 90 -635520270 -44089187 -1618745093 1608466452
            -2010982214 -921549967 -1090323783 -632433889</internalNodes>
          <leafValues>
            -4.0588364005088806e-01 3.3305639028549194e-01</leafValues></_>
        <_>
          <internalNodes>
            0 -1 99 -136314929 -212345202 -375918629 -121086370
            -1456480930 -750126065 -742012260 1363734600</internalNodes>
          <leafValues>
            -4.7673869132995605e-01 2.8854921460151672e-01</leafValues></_>
        <_>
          <internalNodes>
            0 -1 64 -808984912 -775887659 83949459 -610215408 -615841304
            -1984166684 -1148470638 -1167066902</internalNodes>
          <leafValues>
            -3.8932123780250549e-01 3.5143202543258667e-01</leafValues></_>
        <_>
          <internalNodes>
            0 -1 139 -757136834 821603613 1068384091 325061379
            -252146962 -67337857 -1092431969 -2031781</internalNodes>
          <leafValues>
            -3.5184457898139954e-01 3.5901030898094177e-01</leafValues></_>
        <_>
          <internalNodes>
            0 -1 22 57008117 -18169857 -1412452353 1206714205 1965897591
            -273231873 1314197487 1045708584</internalNodes>
          <leafValues>
            -4.1941061615943909e-01 2.9437774419784546e-01</leafValues></_>
        <_>
          <internalNodes>
            0 -1 133 -834273598 -490297710 -933680579 -641793880
            -587152400 -80944990 -230186326 -941772158</internalNodes>
          <leafValues>
            -3.6267769336700439e-01 3.7105825543403625e-01</leafValues></_>
        <_>
          <internalNodes>
            0 -1 89 -14813916 -47982336 88031061 -136448517 -142669323
            2109728848 1159451838 -1051905</internalNodes>
          <leafValues>
            -3.1720033288002014e-01 4.1295206546783447e-01</leafValues></_>
        <_>
          <internalNodes>
            0 -1 58 -266136974 -392026264 1918654423 1743585229
            1065242402 -861000704 -253700155 -269558386</internalNodes>
          <leafValues>
            -3.7565732002258301e-01 3.5070523619651794e-01</leafValues></_></weakClassifiers></_>
    <!-- stage 19 -->
    <_>
      <maxWeakCount>13</maxWeakCount>
      <stageThreshold>-1.4354848861694336e+00</stageThreshold>
      <weakClassifiers>
        <_>
          <internalNodes>
            0 -1 24 -69738531 -540016689 1912422485 -606090785
            -1279525893 -1425363186 -201600001 -1143235633</internalNodes>
          <leafValues>
            -2.5211057066917419e-01 7.2809463739395142e-01</leafValues></_>
        <_>
          <internalNodes>
            0 -1 43 -251965345 -16787473 -202026659 -143377 -230818305
            -84758513 -235732994 -99950833</internalNodes>
          <leafValues>
            -3.2209527492523193e-01 5.8873438835144043e-01</leafValues></_>
        <_>
          <internalNodes>
            0 -1 81 -134488065 1726944735 851139822 -570471011
            -149880901 -12919484 -92147742 -1056769</internalNodes>
          <leafValues>
            -3.2091155648231506e-01 5.5810439586639404e-01</leafValues></_>
        <_>
          <internalNodes>
            0 -1 1 -159399237 -539099337 -329381341 -4196493 -454164513
            -1068435604 -1461732865 -579340033</internalNodes>
          <leafValues>
            -3.1489747762680054e-01 5.1058316230773926e-01</leafValues></_>
        <_>
          <internalNodes>
            0 -1 130 -268447745 -369133857 -610601489 -416649489
            2134826999 -1145570373 1538522947 1179080527</internalNodes>
          <leafValues>
            -5.4137229919433594e-01 2.5305142998695374e-01</leafValues></_>
        <_>
          <internalNodes>
            0 -1 108 -67115811 -25301762 -224206379 -1213779739
            -1087658169 -360527283 725090239 -1155015990</internalNodes>
          <leafValues>
            -3.8360249996185303e-01 3.6472618579864502e-01</leafValues></_>
        <_>
          <internalNodes>
            0 -1 7 -1291330633 -1304072624 -4194305 -544853244 -3283233
            -70516809 -1362645057 1313850372</internalNodes>
          <leafValues>
            -3.4864157438278198e-01 3.8527178764343262e-01</leafValues></_>
        <_>
          <internalNodes>
            0 -1 84 -6597167 -953876527 -1610644752 -135299 -1746930441
            1161887735 -1074295887 -642082313</internalNodes>
          <leafValues>
            -3.2310527563095093e-01 4.2615911364555359e-01</leafValues></_>
        <_>
          <internalNodes>
            0 -1 147 662118899 1338893942 -484975617 923343827
            1415388989 -753430509 1901592503 1998896753</internalNodes>
          <leafValues>
            -4.6286845207214355e-01 2.7993994951248169e-01</leafValues></_>
        <_>
          <internalNodes>
            0 -1 68 1475186870 934330576 528470485 -205680159
            -2088252285 -1433749567 -351678549 -1079247962</internalNodes>
          <leafValues>
            -3.0706182122230530e-01 4.3688887357711792e-01</leafValues></_>
        <_>
          <internalNodes>
            0 -1 142 -4752449 2011127118 779439455 -599171384 358046757
            -606868926 1535999987 1728052911</internalNodes>
          <leafValues>
            -3.9065316319465637e-01 3.2582795619964600e-01</leafValues></_>
        <_>
          <internalNodes>
            0 -1 156 -96203148 1882786234 955801111 857030801 -699252656
            -1719505944 -604839277 -8765992</internalNodes>
          <leafValues>
            -4.2438080906867981e-01 3.2256215810775757e-01</leafValues></_>
        <_>
          <internalNodes>
            0 -1 5 -1212200705 -210104449 216795519 -61729 -136626693
            -22491405 1157645726 -5570585</internalNodes>
          <leafValues>
            -2.3579664528369904e-01 5.8328127861022949e-01</leafValues></_></weakClassifiers></_></stages>
  <features>
    <_>
      <rect>
        0 3 8 6</rect></_>
    <_>
      <rect>
        1 3 7 3</rect></_>
    <_>
      <rect>
        1 4 7 4</rect></_>
    <_>
      <rect>
        1 8 6 2</rect></_>
    <_>
      <rect>
        1 8 7 4</rect></_>
    <_>
      <rect>
        1 9 3 1</rect></_>
    <_>
      <rect>
        1 10 6 2</rect></_>
    <_>
      <rect>
        1 12 3 1</rect></_>
    <_>
      <rect>
        1 12 7 3</rect></_>
    <_>
      <rect>
        2 5 6 3</rect></_>
    <_>
      <rect>
        2 9 6 2</rect></_>
    <_>
      <rect>
        2 9 7 2</rect></_>
    <_>
      <rect>
        2 10 5 1</rect></_>
    <_>
      <rect>
        3 2 3 6</rect></_>
    <_>
      <rect>
        3 3 3 7</rect></_>
    <_>
      <rect>
        3 5 4 5</rect></_>
    <_>
      <rect>
        3 6 3 4</rect></_>
    <_>
      <rect>
        3 6 4 4</rect></_>
    <_>
      <rect>
        3 8 5 2</rect></_>
    <_>
      <rect>
        3 9 6 2</rect></_>
    <_>
      <rect>
        3 10 2 1</rect></_>
    <_>
      <rect>
        3 10 5 2</rect></_>
    <_>
      <rect>
        3 11 2 1</rect></_>
    <_>
      <rect>
        3 11 6 1</rect></_>
    <_>
      <rect>
        4 6 4 4</rect></_>
    <_>
      <rect>
        4 6 6 3</rect></_>
    <_>
      <rect>
        4 9 6 2</rect></_>
    <_>
      <rect>
        4 9 6 3</rect></_>
    <_>
      <rect>
        4 10 2 1</rect></_>
    <_>
      <rect>
        4 10 4 1</rect></_>
    <_>
      <rect>
        4 11 4 1</rect></_>
    <_>
      <rect>
        5 4 3 4</rect></_>
    <_>
      <rect>
        5 5 3 4</rect></_>
    <_>
      <rect>
        5 5 5 3</rect></_>
    <_>
      <rect>
        5 6 3 4</rect></_>
    <_>
      <rect>
        5 7 3 3</rect></_>
    <_>
      <rect>
        5 7 3 4</rect></_>
    <_>
      <rect>
        5 9 3 1</rect></_>
    <_>
      <rect>
        5 9 5 2</rect></_>
    <_>
      <rect>
        5 10 2 1</rect></_>
    <_>
      <rect>
        5 10 5 2</rect></_>
    <_>
      <rect>
        5 11 2 1</rect></_>
    <_>
      <rect>
        5 11 5 1</rect></_>
    <_>
      <rect>
        5 11 6 2</rect></_>
    <_>
      <rect>
        5 12 3 1</rect></_>
    <_>
      <rect>
        6 4 3 5</rect></_>
    <_>
      <rect>
        6 6 3 4</rect></_>
    <_>
      <rect>
        6 8 5 2</rect></_>
    <_>
      <rect>
        6 9 5 1</rect></_>
    <_>
      <rect>
        6 10 3 1</rect></_>
    <_>
      <rect>
        6 10 3 3</rect></_>
    <_>
      <rect>
        6 10 4 1</rect></_>
    <_>
      <rect>
        6 10 5 2</rect></_>
    <_>
      <rect>
        7 7 3 2</rect></_>
    <_>
      <rect>
        7 10 5 1</rect></_>
    <_>
      <rect>
        7 11 2 1</rect></_>
    <_>
      <rect>
        7 11 3 1</rect></_>
    <_>
      <rect>
        7 12 2 1</rect></_>
    <_>
      <rect>
        7 12 3 1</rect></_>
    <_>
      <rect>
        7 12 3 2</rect></_>
    <_>
      <rect>
        8 4 4 5</rect></_>
    <_>
      <rect>
        8 7 2 3</rect></_>
    <_>
      <rect>
        8 7 2 4</rect></_>
    <_>
      <rect>
        8 9 2 2</rect></_>
    <_>
      <rect>
        8 10 2 1</rect></_>
    <_>
      <rect>
        8 10 3 1</rect></_>
    <_>
      <rect>
        8 10 3 2</rect></_>
    <_>
      <rect>
        8 10 4 1</rect></_>
    <_>
      <rect>
        8 11 2 1</rect></_>
    <_>
      <rect>
        8 11 3 2</rect></_>
    <_>
      <rect>
        8 11 4 1</rect></_>
    <_>
      <rect>
        9 0 2 7</rect></_>
    <_>
      <rect>
        9 2 1 5</rect></_>
    <_>
      <rect>
        9 4 4 5</rect></_>
    <_>
      <rect>
        9 5 1 2</rect></_>
    <_>
      <rect>
        9 5 2 5</rect></_>
    <_>
      <rect>
        9 5 4 5</rect></_>
    <_>
      <rect>
        9 6 3 4</rect></_>
    <_>
      <rect>
        9 6 3 5</rect></_>
    <_>
      <rect>
        9 7 4 5</rect></_>
    <_>
      <rect>
        9 8 1 2</rect></_>
    <_>
      <rect>
        9 8 2 2</rect></_>
    <_>
      <rect>
        9 9 1 3</rect></_>
    <_>
      <rect>
        9 9 2 1</rect></_>
    <_>
      <rect>
        9 9 3 1</rect></_>
    <_>
      <rect>
        9 10 1 1</rect></_>
    <_>
      <rect>
        9 10 1 2</rect></_>
    <_>
      <rect>
        9 10 2 1</rect></_>
    <_>
      <rect>
        9 10 3 1</rect></_>
    <_>
      <rect>
        9 11 1 1</rect></_>
    <_>
      <rect>
        9 11 2 1</rect></_>
    <_>
      <rect>
        9 11 3 1</rect></_>
    <_>
      <rect>
        9 12 2 1</rect></_>
    <_>
      <rect>
        9 13 1 2</rect></_>
    <_>
      <rect>
        9 13 1 3</rect></_>
    <_>
      <rect>
        10 1 2 6</rect></_>
    <_>
      <rect>
        10 4 1 4</rect></_>
    <_>
      <rect>
        10 5 1 2</rect></_>
    <_>
      <rect>
        10 6 1 1</rect></_>
    <_>
      <rect>
        10 6 1 2</rect></_>
    <_>
      <rect>
        10 6 1 4</rect></_>
    <_>
      <rect>
        10 6 3 4</rect></_>
    <_>
      <rect>
        10 7 1 1</rect></_>
    <_>
      <rect>
        10 7 1 3</rect></_>
    <_>
      <rect>
        10 7 1 4</rect></_>
    <_>
      <rect>
        10 7 2 3</rect></_>
    <_>
      <rect>
        10 8 1 1</rect></_>
    <_>
      <rect>
        10 8 1 3</rect></_>
    <_>
      <rect>
        10 8 2 3</rect></_>
    <_>
      <rect>
        10 8 2 4</rect></_>
    <_>
      <rect>
        10 9 1 1</rect></_>
    <_>
      <rect>
        10 9 1 2</rect></_>
    <_>
      <rect>
        10 10 1 1</rect></_>
    <_>
      <rect>
        10 10 2 1</rect></_>
    <_>
      <rect>
        10 11 1 1</rect></_>
    <_>
      <rect>
        10 11 2 1</rect></_>
    <_>
      <rect>
        10 12 1 1</rect></_>
    <_>
      <rect>
        10 12 1 2</rect></_>
    <_>
      <rect>
        10 13 1 1</rect></_>
    <_>
      <rect>
        10 13 1 2</rect></_>
    <_>
      <rect>
        10 14 1 1</rect></_>
    <_>
      <rect>
        10 15 1 1</rect></_>
    <_>
      <rect>
        11 4 1 2</rect></_>
    <_>
      <rect>
        11 4 1 4</rect></_>
    <_>
      <rect>
        11 5 1 1</rect></_>
    <_>
      <rect>
        11 5 1 2</rect></_>
    <_>
      <rect>
        11 5 1 4</rect></_>
    <_>
      <rect>
        11 6 1 1</rect></_>
    <_>
      <rect>
        11 6 1 2</rect></_>
    <_>
      <rect>
        11 6 1 3</rect></_>
    <_>
      <rect>
        11 7 1 1</rect></_>
    <_>
      <rect>
        11 7 1 5</rect></_>
    <_>
      <rect>
        11 8 1 1</rect></_>
    <_>
      <rect>
        11 8 1 2</rect></_>
    <_>
      <rect>
        11 9 1 1</rect></_>
    <_>
      <rect>
        11 9 1 3</rect></_>
    <_>
      <rect>
        11 10 1 1</rect></_>
    <_>
      <rect>
        11 10 1 2</rect></_>
    <_>
      <rect>
        11 11 1 1</rect></_>
    <_>
      <rect>
        11 11 2 2</rect></_>
    <_>
      <rect>
        11 12 1 1</rect></_>
    <_>
      <rect>
        11 13 1 1</rect></_>
    <_>
      <rect>
        11 13 1 2</rect></_>
    <_>
      <rect>
        11 14 1 1</rect></_>
    <_>
      <rect>
        11 15 1 1</rect></_>
    <_>
      <rect>
        11 16 1 1</rect></_>
    <_>
      <rect>
        12 2 3 6</rect></_>
    <_>
      <rect>
        12 4 1 2</rect></_>
    <_>
      <rect>
        12 4 3 6</rect></_>
    <_>
      <rect>
        12 6 1 3</rect></_>
    <_>
      <rect>
        12 6 3 4</rect></_>
    <_>
      <rect>
        12 7 2 3</rect></_>
    <_>
      <rect>
        12 8 1 2</rect></_>
    <_>
      <rect>
        12 8 2 3</rect></_>
    <_>
      <rect>
        12 9 1 2</rect></_>
    <_>
      <rect>
        12 10 1 2</rect></_>
    <_>
      <rect>
        12 10 1 3</rect></_>
    <_>
      <rect>
        12 11 1 1</rect></_>
    <_>
      <rect>
        12 11 2 1</rect></_>
    <_>
      <rect>
        13 10 2 1</rect></_>
    <_>
      <rect>
        13 10 3 1</rect></_>
    <_>
      <rect>
        13 11 2 1</rect></_>
    <_>
      <rect>
        13 11 3 1</rect></_>
    <_>
      <rect>
        13 13 2 2</rect></_>
    <_>
      <rect>
        14 10 2 1</rect></_>
    <_>
      <rect>
        16 11 1 1</rect></_>
    <_>
      <rect>
        17 10 1 1</rect></_></features></cascade>
</opencv_storage>
